35 300
de -0.13075 -0.087659 -0.11427 -0.020641 0.11753 0.19687 0.054257 -0.0028717 0.062278 -0.10023 -0.050123 -0.026275 -0.057605 -0.13072 0.10147 0.15849 0.095493 0.051555 0.015874 -0.046374 0.098467 0.034867 0.039933 -0.1208 0.065478 -0.0098815 -0.13914 -0.043732 -0.015622 0.05665 -0.01476 -0.0054753 -0.047127 -0.21595 -0.015154 -0.0034798 0.058253 0.036444 -0.25157 0.060459 0.23842 0.017983 0.10673 -0.15889 0.23043 -0.078636 0.075394 -0.18431 -0.31417 0.084773 -0.14912 0.036904 -0.1144 0.025056 0.058607 0.059822 -0.17929 0.028468 0.16728 -0.020946 0.019714 0.0083937 0.032227 0.013204 0.06393 -0.19616 -0.043487 0.10124 -0.032762 0.17206 -0.062339 -0.10172 -0.31708 0.079012 -0.1232 -0.15504 -0.084187 -0.099777 0.16626 0.086791 0.001035 0.10478 0.12913 -0.0026416 0.061668 0.10004 -0.073838 0.167 0.10342 -0.05263 0.20125 0.23046 0.043589 0.19497 -0.0093385 -0.042631 -0.17599 -0.15208 0.23261 -0.10049 0.096678 -0.030501 0.060627 -0.27119 -0.11177 0.26739 0.205 -0.13012 0.051966 0.18115 0.04977 0.069596 -0.039885 0.20009 -0.13619 0.28566 0.16922 -0.084435 -0.25588 -0.019324 0.024354 0.017741 0.084594 -0.15838 -0.18982 -0.14319 0.017073 0.03242 0.21051 0.14096 0.076237 0.033525 0.0043038 0.064959 -0.037789 -0.14099 0.0075984 -0.11115 -0.035141 0.14261 0.053846 -0.057024 -0.0094945 0.10681 0.02614 0.042217 -0.070822 -0.10298 0.094206 0.045829 0.2296 -0.10944 0.10839 -0.1162 -0.062974 -0.037453 -0.041537 -0.071237 -0.086044 0.061869 -0.081216 0.13235 0.013349 0.041143 0.096013 -0.14398 0.050647 -0.21338 -0.05996 -0.076753 0.1126 0.1712 0.11117 0.0094953 -0.14779 -0.22474 -0.063649 -0.23653 -0.014093 0.13146 -0.014384 -0.10514 0.012632 -0.014102 0.0011301 0.0052141 -0.09386 0.026303 -0.19247 0.15463 -0.070266 -0.08647 0.032046 -0.141 -0.11656 -0.11 0.13072 0.075912 -0.050148 0.15808 -0.011774 0.064582 -0.17485 -0.055014 -0.21166 0.23468 0.27994 -0.0047165 -0.058851 -0.011637 0.048679 -0.065226 0.035772 -0.14549 -0.0047683 -0.2176 0.097211 -0.23592 0.059933 -0.043059 -0.142 -0.13229 0.14831 -0.10836 -0.041123 -0.053446 -0.20878 -0.056799 0.042364 -0.073509 -0.021485 0.023052 0.026784 0.01281 0.0029815 0.074967 0.20921 0.073388 0.034119 -0.14643 -0.069501 0.14438 0.0901 -0.030421 0.094469 0.03088 0.014779 -0.068274 0.1562 -0.14401 -0.070045 -0.026215 -0.028127 -0.044533 -0.11838 0.12447 -0.21847 0.027829 -0.034787 -0.1793 0.095557 -0.0069741 0.063249 -0.13063 0.02909 -0.0040399 -0.10868 0.19582 -0.23576 -0.23128 0.099063 0.026377 0.096095 0.30016 0.097604 0.019053 0.081196 0.062768 0.23626 -0.042725 -0.067281 0.1964 -0.16594 -0.17855 0.26355 -0.029399 -0.11128 0.10487 -0.1206 0.01336 -0.18132 0.0022502 0.19542 -0.18097 -0.30351 -0.10376 0.030874 -0.040476 -0.012293 0.042569
</s> -0.36446 0.095962 -0.16188 -0.28784 0.24135 -0.091308 -0.03191 0.087084 0.026673 -0.080837 0.15115 0.082673 0.090765 -0.092976 0.15758 0.080713 -0.092193 0.1489 -0.052053 0.12568 0.26058 -0.13323 0.25828 -0.11334 0.2739 0.083208 0.013881 -0.098315 -0.2813 -0.22978 0.2877 0.29269 0.047912 0.10456 0.011869 0.010585 0.10773 -0.11436 0.19706 0.33666 0.34352 0.055834 -0.11962 0.075398 0.19805 -0.35103 -0.045687 -0.26519 0.071122 0.080239 -0.23263 -0.039208 -0.53293 -0.034166 0.12133 -0.075486 0.048819 0.19546 -0.039053 0.0054963 0.044245 -0.23716 0.14347 -0.17614 0.40267 0.24665 0.26393 -0.010655 -0.41789 -0.0043102 -0.14959 -0.14506 -0.3274 0.057849 -0.35901 0.18165 0.22303 0.018395 0.39798 0.19296 0.0041728 -0.35316 0.13027 -0.246 -0.071848 -0.12122 0.17941 0.36235 -0.27719 -0.11889 0.57624 -0.026302 0.13594 -0.16757 -0.02421 -0.14689 -0.38124 0.07643 0.003238 0.03209 0.38536 -0.23563 0.23756 -0.5635 -0.30937 0.053787 -0.25446 0.066883 -0.13233 0.029385 -0.18011 0.23471 0.077603 0.13689 0.11513 -0.066863 0.31383 -0.25686 -0.011146 -0.18943 -0.071543 -0.083939 -0.15583 -0.24908 0.066351 -0.14104 0.20348 0.047783 0.015516 -0.13304 -0.29391 0.16016 -0.23626 -0.11463 -0.22063 0.14786 0.1471 -0.072779 -0.066447 -0.07895 0.10502 0.15527 -0.2247 0.20327 0.21791 -0.20792 0.59138 0.13196 -0.13033 -0.16515 -0.036654 -0.22644 -0.0061621 0.039057 0.10497 -0.3722 -0.30235 -0.29848 0.10427 -0.28852 0.016451 0.020937 -0.089796 0.043252 -0.48395 0.11963 0.42526 -0.0025859 -0.1585 -0.35239 -0.094638 0.085925 0.13943 -0.012928 0.17401 -0.085624 0.24526 -0.33238 -0.16465 -0.23434 -0.22478 0.093202 0.18044 -0.0022709 0.64433 0.17787 -0.16303 0.020501 0.29836 0.18501 -0.31519 -0.062988 -0.11118 -0.27248 0.0066759 0.15482 -0.034834 -0.13778 0.17437 -0.1289 0.26582 0.18493 0.137 0.089572 -0.34967 0.070412 -0.10905 -0.13934 -0.071264 -0.21024 -0.23149 -0.15622 0.031041 -0.25423 0.029135 -0.13781 0.33374 -0.010971 0.025904 0.0727 -0.20574 -0.018906 0.17188 -0.28261 -0.24606 -0.18171 0.045923 -0.004392 0.15882 0.10441 -0.21117 -0.021247 -0.070883 -0.20569 0.056579 0.013914 0.017319 0.031098 0.19314 0.082517 -0.31496 0.15507 0.31209 0.49492 0.092639 -0.12091 -0.15506 -0.038429 0.05822 -0.59395 0.028685 0.33887 0.11506 -0.070859 -0.094241 0.2186 -0.065878 0.22759 -0.43652 -0.082678 -0.023709 -0.10877 -0.10187 0.23392 0.21493 -0.0013937 -0.11347 0.084367 0.08499 0.15615 0.16991 0.21016 0.045504 0.014265 0.40636 -0.033568 -0.19224 0.1565 0.16724 0.16809 -0.058226 0.30785 -0.25357 -0.41269 0.20236 -0.065041 0.088534 0.16504 -0.092149 0.063091 -0.19525 0.016894 0.28062 0.089901 -0.32328 -0.31542 -0.35193 -0.14986 0.23584 0.18541
, -0.05911 -0.083343 -0.093019 0.055022 0.11158 0.26959 0.063027 0.029276 0.047163 -0.21404 0.076856 -0.0048167 0.073276 -0.071174 0.067919 0.16795 0.025599 0.046711 0.0083535 0.074723 0.15508 0.12074 -0.15292 -0.22711 0.0059846 -0.032974 -0.17791 -0.13321 0.080922 -0.0015115 0.081788 0.070111 -0.0059703 -0.24145 0.15036 0.10163 -0.19595 0.20332 -0.08821 -0.0025969 0.12682 -0.026486 0.05218 -0.016389 0.18476 -0.052947 0.11276 -0.13077 -0.049243 0.0099811 -0.039274 -0.070482 -0.19867 -0.14601 -0.089112 -0.00024724 -0.051753 0.018324 0.17996 -0.076272 -0.12699 0.051751 0.099054 0.077612 -0.070409 -0.10894 -0.06308 0.1683 0.011339 0.24431 0.0039653 -0.028868 -0.10322 0.044214 -0.036952 0.0037858 -0.11704 -0.10345 0.20865 0.16026 0.0032515 0.0085871 0.15769 0.073399 0.03924 0.10125 0.0037511 0.32106 0.16057 -0.054304 0.22096 0.14089 0.12211 -0.015545 -0.065033 -0.037958 -0.23508 0.11448 -0.031709 0.083186 0.14368 -0.021441 0.32513 -0.090612 -0.088993 0.24537 0.24262 0.078445 0.05634 -0.0067866 0.045198 0.063821 0.042502 -0.026299 -0.21504 0.14574 0.16102 -0.056195 -0.059683 0.029853 -0.061782 -0.012889 0.082538 -0.097795 -0.34828 -0.11273 0.01714 -0.0049159 0.12113 0.03202 0.023385 -0.0081865 0.17709 0.13416 -0.15158 0.033909 -0.0078484 -0.08605 0.17532 0.10965 -0.082889 0.085272 0.044922 0.079424 -0.20138 0.052378 -0.0020818 -0.15343 0.11117 0.14514 0.091916 0.0010245 0.1316 -0.033164 0.047423 0.0066566 -0.02126 -0.041627 0.093807 0.051691 -0.031415 0.09157 -0.14212 0.12573 -0.021071 -0.12709 0.046962 -0.12354 -0.23961 -0.07021 0.1694 0.14152 -0.041632 0.034251 -0.10315 -0.028185 -0.15899 0.051614 0.096846 0.061382 0.10459 -0.0062639 -0.082858 -0.1484 0.16915 0.061101 0.017711 0.061895 -0.15745 0.1938 -0.099898 -0.074984 0.16214 -0.16765 -0.1896 0.0028484 -0.091578 -0.067959 -0.049052 0.052995 0.13692 0.077207 0.060084 0.055329 -0.015046 0.14196 0.098207 0.04155 -0.046994 -0.23547 -0.045419 -0.099123 -0.042548 -0.21635 0.073838 -0.015737 0.0029493 -0.092031 0.058939 0.019329 0.083679 -0.15091 0.055219 -0.022681 -0.10084 -0.0061851 -0.10521 0.035751 0.1228 -0.085189 0.03289 -0.04721 0.15267 0.14318 0.020812 0.036774 0.13577 -0.094081 -0.026113 -0.1048 -0.048832 0.08081 0.054203 -0.030686 0.0038586 -0.066868 0.033404 0.054518 -0.018115 -0.044879 0.041789 0.01849 0.051579 -0.0049403 -0.092841 0.090414 -0.077543 0.059121 0.083407 -0.020383 -0.13688 0.11172 -0.02245 0.052503 0.055886 -0.059816 -0.031772 0.13666 -0.18941 -0.19601 -0.015958 0.05368 0.052969 0.16351 0.1032 -0.01745 0.17995 -0.0055358 0.2025 -0.17807 -0.028202 -0.14807 -0.07034 -0.14238 0.02811 0.026752 0.12816 0.1624 -0.11337 0.16677 -0.16916 -0.18453 0.15117 -0.030142 -0.28381 -0.23216 -0.1324 -0.054064 0.17285 0.16713
. 0.0029007 0.09963 -0.055262 -0.087999 -0.081318 0.23905 0.11621 0.043504 0.024316 -0.1463 0.13194 0.11518 0.073063 -0.19451 0.25814 0.18096 0.13045 -0.026367 -0.079153 -0.058566 0.25584 0.12697 -0.15602 -0.26563 -0.043 0.11169 -0.16126 -0.18886 0.10825 0.0275 -0.050402 0.00065111 0.050345 -0.35321 0.0066056 0.10832 -0.29408 0.066805 -0.069649 0.023978 0.10978 -0.091219 0.033005 -0.087315 0.18795 -0.078058 0.054102 -0.21036 -0.082037 0.00074696 -0.14648 -0.029418 -0.40931 -0.096455 0.015774 0.069467 0.056977 0.021412 0.069897 0.0091133 0.066669 0.012677 0.02872 -0.00033325 0.11125 -0.04982 -0.25344 0.13265 0.0050706 0.026485 0.0061715 0.029646 -0.15103 0.040158 0.042827 -0.068451 -0.032853 -0.23429 0.14526 0.0050865 0.080915 -0.1392 0.21399 0.01289 0.036947 0.26361 0.049181 0.22027 0.18195 -0.11468 0.27258 0.13962 0.15473 0.091993 -0.25171 -0.1323 -0.34287 0.001294 -0.091296 -0.17397 0.27088 0.046106 0.085174 -0.22841 -0.12237 0.11238 0.19865 0.20927 0.025123 0.060595 0.027309 0.12286 0.081567 0.083294 -0.12584 -0.043694 0.23828 -0.085715 -0.14252 0.040747 0.041684 0.073632 0.069946 -0.22112 -0.18895 -0.27016 0.072418 -0.060025 0.087542 0.083872 -0.057839 0.046762 0.096467 -0.0049911 -0.13205 0.083263 0.025661 -0.080762 -0.025979 0.025068 -0.13269 0.23799 -0.045537 -0.032486 -0.17542 -0.07087 -0.0092314 -0.1426 0.044785 0.10764 -0.12267 -0.13936 0.15609 0.036979 -0.1347 -0.15584 -0.098543 -0.27965 0.14849 -0.033076 0.04538 0.060087 -0.084011 0.034899 -0.14898 -0.018047 -0.083266 -0.086712 -0.08873 -0.085134 0.10481 0.05159 -0.075947 -0.10214 -0.11083 0.036904 -0.1026 0.00027061 0.038664 -0.05887 0.036666 0.0094112 0.073761 -0.21233 0.19462 0.05661 -0.13601 -0.084792 -0.13766 0.34431 -0.17804 -0.11636 0.14858 -0.18935 -0.14385 -0.10377 0.053098 -0.09365 -0.18925 0.046252 -0.020399 0.13335 -0.17543 0.07522 -0.10008 0.070459 0.068416 -0.092758 0.069816 -0.27967 0.015422 -0.03089 0.079765 -0.10378 0.084016 -0.1664 0.10691 -0.37024 0.052368 0.0141 -0.099556 -0.15061 0.15734 -0.20084 -0.061202 -0.023403 -0.13609 -0.057525 -0.18298 -0.18643 0.091007 -0.039704 0.17626 0.14199 0.0012106 -0.024418 0.076348 -0.14461 0.079363 -0.1741 0.16792 0.14081 0.092129 0.17539 0.062891 -0.17473 0.046689 0.032393 0.082653 -0.15484 0.14681 0.10614 -0.07633 -0.13708 -0.044246 0.109 -0.12887 0.13806 0.14437 -0.080184 0.062125 0.19078 -0.02029 0.13317 -0.015474 -0.072504 -0.13808 -0.013662 -0.159 -0.20814 0.18404 0.089045 0.064484 0.097708 0.14084 0.13587 0.2162 0.015449 0.13246 -0.049131 0.085921 -0.080149 0.074622 -0.21558 -0.045011 0.060289 0.0099671 0.076789 -0.020187 0.065408 0.017595 -0.22571 0.24442 0.017908 -0.28968 -0.20743 -0.13437 -0.068644 0.16343 -0.044069
la -0.087243 -0.20264 -0.086002 -0.15845 -0.07976 0.24064 -0.024934 0.11356 -0.009319 -0.14861 -0.099604 -0.059645 0.1208 -0.16538 0.11366 0.12032 -0.08945 0.11242 -0.10948 0.012922 0.092902 0.063886 0.15397 0.0064485 0.14183 0.1011 0.045985 -0.089442 -0.025309 0.0029423 -0.097328 -0.0012994 0.045796 -0.26232 -0.0076949 -0.090942 -0.040807 0.01449 -0.21705 0.078391 0.20357 -0.045347 0.082835 -0.15313 -0.025507 -0.19498 0.017177 -0.31642 -0.19756 0.097365 -0.15614 0.035947 -0.0082599 -0.14414 -0.15142 -0.09669 -0.2223 0.1094 0.14114 -0.087859 -0.067507 0.027769 0.021343 0.023135 0.27188 -0.31469 -0.10669 0.11766 -0.014595 0.1009 -0.055172 -0.18244 -0.11653 0.10478 -0.24808 -0.19043 -0.052704 0.059834 0.25937 -0.093189 -0.15898 0.038912 0.14788 -0.053159 0.16869 0.12386 -0.096096 0.10762 -0.11596 -0.10957 0.21477 0.23001 0.13008 0.10349 0.081993 -0.096169 -0.22055 -0.16225 -0.0010616 -0.17916 0.046875 -0.0070787 0.0090538 -0.017289 -0.28942 0.17773 0.23212 -0.20835 0.10403 0.147 0.026384 -0.051521 -0.052588 0.09731 0.022555 0.23481 0.2215 -0.11543 -0.062468 -0.15799 0.077123 0.14735 -0.044037 -0.14469 -0.12982 -0.030683 -0.0033111 0.10866 0.29185 0.04682 -0.00098409 -0.0052571 -0.091079 0.064221 -0.063003 -0.094375 0.048162 -0.21204 -0.038798 0.21844 0.10557 -0.14175 0.044464 0.1293 -0.02879 0.0083234 -0.078902 -0.052331 0.12595 0.031053 0.048523 -0.054238 -0.024698 -0.032973 0.024118 -0.063725 -0.042761 -0.031973 -0.09082 0.236 -0.14276 -0.020618 -0.056492 -0.067096 0.0094872 -0.023221 0.17026 -0.24499 -0.097168 -0.024098 0.17047 0.15451 -0.013958 -0.12616 -0.058871 -0.17824 0.076914 -0.18517 0.060541 0.17827 -0.10135 -0.043738 0.059666 0.10141 -0.0086644 -0.053004 -0.22161 0.076878 0.058065 0.17477 -0.075659 -0.14265 0.002005 -0.15388 -0.28006 0.12438 0.13075 0.086962 -0.059509 0.11403 0.1565 0.079556 -0.1379 -0.011146 0.04614 0.22762 0.26415 -0.056961 -0.050645 0.0046277 -0.025336 -0.074364 -0.097341 -0.01886 -0.10939 -0.079747 0.11299 -0.13196 -0.049792 0.19633 -0.11148 -0.11926 0.027289 -0.088296 -0.068848 0.08968 -0.074461 -0.044752 -0.094387 0.086392 0.15731 -0.2303 0.10234 -0.02761 -0.15307 -0.047508 0.27236 0.12071 0.11643 -0.039195 0.012909 0.069169 0.21449 -0.09682 0.19353 0.1306 -0.068394 0.024422 0.043002 -0.22868 -0.080458 -0.0021369 -0.069716 0.081719 -0.058182 -0.0002466 -0.12725 0.050906 0.0025211 -0.16473 0.25295 0.078164 0.10624 -0.0339 0.062989 0.013516 -0.13056 0.28315 0.011068 -0.39159 0.049861 0.070111 0.22991 0.23663 0.15684 0.051742 0.26008 0.08846 0.014493 -0.018517 0.14881 0.086232 -0.27337 -0.082298 0.16161 0.067818 -0.029052 0.078524 -0.011967 -0.078333 -0.23465 -0.049609 0.19376 -0.13847 -0.46039 -0.038072 0.11385 -0.097904 0.057656 0.072709
en -0.07545 -0.038884 0.038438 -0.10724 0.035105 0.06995 -0.0026379 0.041018 0.039145 -0.18308 -0.044143 -0.1012 -0.030684 -0.16878 0.10209 0.20793 0.086362 -0.062942 -0.14584 -0.047861 0.24844 0.19359 -0.035147 -0.1236 0.028792 -0.044538 0.04348 -0.2649 0.085423 -0.059545 -0.11975 0.11814 -0.097434 -0.13552 0.20005 -0.067928 0.013179 0.19967 -0.08636 0.060831 0.12602 0.014311 0.10387 -0.2125 0.1951 -0.13097 0.050486 -0.36252 -0.036009 0.12687 -0.02351 0.082544 -0.17684 0.057777 0.025268 -0.017796 -0.026146 -0.052064 0.23589 -0.12002 0.18026 -0.169 0.15982 -0.16463 0.15429 -0.19096 -0.14133 0.14612 0.020851 0.1193 -0.14367 0.07898 -0.13477 0.026538 -0.042022 -0.1736 -0.23591 -0.097365 0.29347 0.0090856 -0.0091655 0.18018 0.16703 -0.040164 0.11661 -0.075116 0.076377 0.1414 0.090636 -0.01237 0.078946 0.25551 0.029044 0.14561 0.092251 -0.12397 -0.36303 0.097645 0.12059 -0.11897 0.24051 -0.043773 0.040432 -0.12295 -0.070529 0.18437 0.098217 -0.052073 0.060205 0.076155 0.11441 0.15753 0.12658 0.039158 -0.00045034 0.10172 0.33765 -0.058418 -0.11121 0.044991 0.15462 0.023376 0.058628 0.11216 -0.34501 -0.1652 0.057151 0.051537 0.093998 0.1209 -0.018908 0.015916 0.10229 -0.0056713 -0.077965 -0.023026 -0.10484 -0.11566 0.10483 0.105 0.094622 0.050087 0.026057 0.11276 -0.069095 -0.085112 0.19532 -0.10137 0.22176 -0.067579 0.18228 0.0034325 0.029226 -0.077201 -0.083865 -0.056601 -0.012805 -0.17311 -0.11191 0.031172 -0.066539 0.032996 0.096794 0.20214 -0.040894 -0.069747 -0.011413 -0.15794 -0.052371 -0.00036082 0.06581 0.20804 0.13262 -0.12135 -0.13392 -0.075122 -0.20243 0.018669 -0.12831 0.2124 -0.010075 0.037364 0.15738 -0.080925 0.27323 0.05121 0.021477 -0.056585 -0.016459 0.17912 0.0015558 0.093465 0.070182 -0.17871 -0.13999 -0.031899 0.10258 0.04658 -0.028254 0.13619 0.13662 0.017173 -0.0099263 0.10127 -0.11622 0.0157 0.10396 -0.11627 0.15516 -0.027054 0.14388 0.020393 0.050613 -0.079222 -0.069986 -0.1178 0.085856 -0.38193 -0.040251 0.18738 -0.1405 -0.12713 0.084031 -0.20218 -0.11562 -0.011318 -0.17094 -0.17338 -0.23232 0.024059 0.032293 0.12069 0.029851 0.17489 0.078991 0.081048 -0.0087522 -0.049838 -0.037371 0.11619 0.0021115 -0.011379 0.1119 -0.14403 0.27012 -0.10325 0.10284 -0.0032941 0.1114 -0.01124 0.036243 -0.2405 -0.034046 0.012875 -0.057152 0.013018 -0.049557 -0.062849 0.022496 0.014476 -0.028904 -0.1231 -0.061061 0.033134 0.0015246 0.012432 -0.017003 0.080822 -0.14914 -0.34296 0.018496 0.031778 0.22978 0.31816 0.041379 0.074987 0.27721 0.039741 0.091787 -0.040362 0.014706 0.17922 -0.032791 0.052413 0.17985 -0.11966 -0.16692 0.093557 -0.17746 0.067329 -0.24419 -0.033977 0.31626 -0.011872 -0.27428 0.098848 -0.094099 -0.11382 -0.070251 0.20439
el 0.035748 0.07235 -0.069134 0.028064 0.059031 0.07088 -0.072068 0.051085 -0.025811 -0.29631 0.0542 0.10867 0.149 -0.048866 -0.070444 0.028915 0.22319 -0.057101 -0.034669 0.10002 0.17861 0.089148 0.09265 -0.38492 0.13441 -0.15999 0.075882 -0.10702 0.09513 -0.24495 0.1817 0.099435 -0.13467 -0.4172 0.032746 0.21914 -0.14856 0.014076 -0.11198 0.23946 0.20918 0.12006 0.0030198 -0.28722 0.069774 0.039026 0.0026674 -0.1166 -0.042533 -0.11727 -0.16688 0.14746 -0.10435 -0.040089 0.093152 0.1024 -0.037584 -0.093071 0.19807 -0.21302 -0.037371 -0.067561 0.17037 -0.0025929 0.17524 -0.24258 0.18489 -0.043901 0.019096 -0.07971 -0.12906 -0.037951 -0.15561 -0.042212 -0.22028 0.045725 -0.16202 -0.07078 0.29702 0.068473 0.064872 -0.035137 0.0802 -0.00010897 -0.048453 -0.080911 0.029741 0.31707 0.24662 0.0099864 0.28372 0.2084 0.045115 0.2224 0.13213 -0.088049 -0.35532 0.077776 -0.0066971 -0.07158 0.077969 -0.029581 -0.11927 0.014919 -0.075872 0.22144 0.084356 -0.078799 0.022021 -0.050587 0.2259 0.069977 0.010712 0.067618 -0.11129 0.20828 0.087123 0.059309 -0.072418 -0.044649 0.0081396 -0.054189 0.081745 -0.038027 -0.38422 -0.3508 0.027438 -0.20704 0.15623 -0.025075 -0.053779 -0.10121 0.11586 0.069583 -0.19981 0.0090431 -0.0041812 -0.06571 0.16371 0.03994 -0.0095012 -0.050277 0.10041 0.15501 0.015856 -0.0058618 -0.035815 -0.13519 0.066836 -0.12833 0.24889 0.15914 0.1664 0.13836 -0.21555 -0.14942 0.082576 -0.18834 -0.042096 0.14521 0.0062044 0.12418 -0.08792 0.040945 -0.0078187 0.030225 -0.06843 -0.14014 0.040823 -0.1485 0.11026 0.079837 0.063523 -0.050382 -0.19309 -0.13596 -0.078349 -0.042904 -0.099903 0.15535 -0.10639 -0.024307 0.039442 0.045374 0.14995 0.022284 0.074792 -0.13141 0.10031 0.099632 -0.003486 0.063597 0.079861 -0.12305 -0.022075 -0.18952 0.052067 -0.055808 0.020944 0.095219 -0.0027468 0.043778 0.086774 0.1878 -0.03204 0.028848 -0.00011446 0.049086 -0.03336 -0.18719 -0.13072 -0.044743 0.083315 -0.15886 -0.090432 -0.070203 0.14057 -0.11064 0.13378 0.057531 -0.16222 -0.18437 -0.016271 -0.17922 0.073831 0.060655 -0.20236 -0.091576 0.038371 0.062098 -0.0012045 0.11982 0.080371 0.14165 0.062362 -0.036278 0.18981 0.057631 -0.12266 0.0051722 -0.12201 0.02619 0.224 -0.22045 0.18852 -0.16477 0.041919 0.075526 0.16889 0.011214 -0.17314 -0.090979 0.067692 0.085565 -0.104 0.00433 -0.11287 0.0066919 0.0081971 -0.074108 -0.084247 -0.080576 0.010301 0.10869 0.049049 0.11805 0.012963 0.1526 -0.15902 -0.26869 -0.019827 -0.0080557 0.12086 0.31507 -0.019282 0.045085 0.21956 0.10168 0.10081 -0.029663 0.063331 0.24992 -0.028832 -0.068594 0.15222 -0.073604 0.10371 -0.020285 -0.1295 0.11394 -0.024301 -0.23792 0.21563 0.069312 -0.15989 -0.067915 0.0024529 -0.065023 -0.055356 -0.098119
y -0.032596 -0.045742 -0.065643 0.015506 0.12801 0.17722 0.0087185 0.042578 0.061086 -0.30909 0.051332 0.02847 0.11089 0.026909 0.018673 0.13696 0.076586 -0.06908 -0.014897 -0.00054897 0.012264 0.06028 -0.098423 -0.14296 0.048658 -0.002026 -0.10121 -0.22557 0.10547 -0.056413 0.034365 0.065657 0.02634 -0.15916 0.11445 0.13499 -0.095081 0.12763 -0.073913 0.043575 0.06547 0.10495 -0.037375 -0.014293 0.12558 -0.026631 0.18348 -0.1735 0.014401 0.11602 -0.023382 0.049352 -0.16939 -0.093096 -0.16163 -0.020542 0.011027 -0.013327 0.23367 -0.084986 -0.095106 -0.097573 0.06487 -0.028549 0.031747 -0.07378 0.037195 0.12664 -0.070544 0.18386 0.11214 -0.11742 -0.14396 0.068394 -0.035179 0.079584 -0.12191 -0.075848 0.24266 0.060953 -0.068302 0.12417 0.23276 -0.059747 0.073891 0.12044 -0.16861 0.12548 0.097368 0.1194 0.17856 0.11417 0.023018 0.057102 -0.011668 -0.065887 -0.21651 0.031054 0.14228 0.0017269 0.12548 -0.12042 0.11758 -0.034166 -0.12815 0.36861 0.16183 -0.084923 -0.063113 0.00112 0.14095 0.087449 0.19152 0.048646 -0.27184 0.1134 0.093435 -0.038884 -0.11967 0.01686 -0.18419 0.064814 0.14764 -0.17661 -0.29468 -0.15258 0.092621 0.029109 0.19907 0.010692 -0.083357 0.024259 0.11201 0.099902 0.064501 0.015837 -0.0034275 -0.069255 0.040677 0.09464 -0.08387 0.21494 0.060205 0.086762 0.07998 0.01023 -0.04807 -0.053201 0.11513 0.12836 0.13475 0.056281 0.0037868 -0.013353 -0.077463 -0.035613 -0.17316 -0.030994 0.051278 -0.029981 0.049138 0.16231 -0.046761 0.046481 0.098679 -0.15905 -0.085395 -0.04984 -0.085358 -0.028026 0.21624 0.085289 0.0059721 -0.021036 0.0094531 -0.14697 -0.036248 -0.052967 -0.088117 0.095302 -0.090301 -0.12923 0.041615 -0.16869 0.049897 0.036146 -0.010033 0.035531 -0.015741 0.1415 -0.0037263 -0.049178 0.16368 -0.11242 -0.13737 0.076688 0.081923 -0.11212 -0.081697 0.082311 -0.034715 0.0047439 -0.015779 0.094147 -0.093969 0.18186 0.041119 -0.039725 -0.0092453 -0.055285 -0.074539 0.0015384 -0.11958 -0.059766 0.079423 -0.089374 0.11694 -0.16628 0.13485 -0.13099 -0.023501 -0.11466 0.06142 -0.046824 0.019577 -0.053148 -0.13011 0.025236 -0.0065595 -0.14397 -0.010691 -0.12399 0.18993 0.11897 -0.045446 0.057646 0.14989 0.09002 -0.03335 -0.058746 0.02754 0.0068906 0.088286 0.013162 -0.02108 0.0075354 0.018196 0.0057817 -0.036145 -0.038998 -0.013673 -0.077766 -0.10215 -0.0108 -0.12351 0.15285 -0.18851 0.026505 0.076309 -0.063028 0.073936 0.096185 0.089546 -0.079923 0.029956 0.092307 -0.087066 0.17016 -0.15244 -0.28482 -0.0029281 0.097939 0.013741 0.28821 0.14883 0.079594 0.052968 -0.0079471 0.1835 -0.055136 0.018303 -0.09278 -0.089465 -0.044238 0.092031 0.054745 0.076823 0.16024 -0.15864 0.071727 -0.17399 -0.14855 0.071987 -0.035747 -0.34835 -0.19355 0.0017566 -0.19313 0.16428 0.025434
- 0.061882 -0.2376 -0.043609 -0.32502 0.17003 0.40012 -0.35921 0.013048 -0.12689 0.13383 -0.01439 0.030164 0.13667 -0.12514 -0.22801 0.23133 0.16652 0.065258 -0.060323 0.34923 0.43216 0.20237 -0.083912 -0.22783 0.1276 0.077393 -0.039449 -0.10438 0.063382 0.3563 -0.12332 -0.042778 0.047927 -0.17214 0.074145 0.063591 -0.11985 -0.03036 -0.14419 0.090816 0.15342 -0.022861 0.094493 -0.054012 0.18633 -0.34727 0.0014791 -0.01182 0.040599 -0.32866 0.060736 -0.13548 -0.2 -0.035283 0.07056 -0.042737 0.018752 -0.145 0.29329 0.035289 0.16844 0.0011773 0.18096 0.044047 0.042062 -0.047811 -0.03091 0.053162 -0.00010481 0.23463 -0.15055 0.24542 -0.19164 -0.065868 -0.097498 -0.14585 -0.10152 -0.17859 0.23321 0.22965 0.027681 0.028704 -0.037009 -0.019333 0.071626 0.084384 -0.085545 0.18733 0.020018 -0.084429 0.59376 0.10525 0.043524 0.084613 -0.066652 -0.12292 -0.25186 0.20179 -0.050097 -0.14264 0.17217 -0.082422 -0.0006153 -0.065 -0.4059 -0.16767 0.16089 -0.029696 0.16912 0.40095 0.45839 -0.014279 -0.11639 0.071256 -0.037997 0.11131 0.08567 -0.43106 0.29915 0.11901 -0.25041 0.11948 0.046262 -0.12303 -0.17653 -0.17842 -0.18363 -0.22566 0.09684 -0.17136 0.24874 0.020866 0.14425 0.066565 -0.4463 0.11817 0.046838 -0.5492 0.27733 0.21647 -0.27258 0.23835 -0.203 -0.013014 -0.21551 -0.008156 0.34472 -0.38538 -0.50106 -0.074358 -0.028768 0.00051442 0.023616 0.049602 -0.053997 0.093219 -0.21057 -0.048011 0.21441 -0.058004 0.022001 0.16849 0.017839 0.059289 0.016691 -0.10045 0.10477 0.1238 -0.36308 -0.33255 -0.18506 0.14948 0.10076 -0.095559 0.28059 0.10842 -0.013423 -0.026027 -0.12341 -0.24032 0.21235 0.02712 0.12364 -0.21852 0.42956 0.16091 -0.19935 0.1226 -0.40844 0.15508 -0.28825 -0.082169 -0.084684 -0.32858 -0.2214 -0.076531 -0.29772 -0.29366 0.052511 0.002251 0.19767 -0.0062039 0.12849 0.10865 -0.12288 -0.0011042 -0.16796 -0.22486 -0.12273 -0.23674 0.022002 -0.16565 0.17226 -0.15764 0.13493 -0.17136 -0.097008 -0.10482 -0.05266 -0.47761 -0.099342 -0.39334 0.11196 -0.12544 -0.11805 -0.091981 -0.032006 -0.028742 -0.004083 -0.33484 -0.20864 -0.090755 0.21117 0.24573 0.10072 0.13941 0.079793 0.21366 0.30519 -0.32969 -0.035839 -0.041737 0.068225 0.42737 0.089181 0.16726 -0.067511 0.026349 0.19177 0.012491 -0.24549 0.13706 -0.082386 0.18589 0.15824 0.093463 -0.017767 -0.0037602 -0.15217 -0.16721 0.20758 0.13573 0.30144 0.20296 -0.01547 -0.033869 -0.010441 -0.061908 -0.43752 0.051394 -0.006136 0.18271 -0.0002473 0.20526 0.2277 0.34907 0.24501 -0.2586 0.16812 -0.069779 -0.29855 0.09952 0.13152 0.093342 0.14696 0.24357 -0.092526 0.53126 -0.13048 -0.053975 -0.0096316 -0.20051 0.10871 -0.028493 -0.23259 -0.52925 0.045869 -0.016944 0.030856 -0.090491
) -0.081215 -0.19791 -0.018045 -0.032796 0.12486 0.10589 -0.020097 0.049854 0.045337 -0.068264 0.097156 -0.017895 0.16673 -0.061027 -0.011937 0.12872 0.13174 0.046493 -0.066428 0.047239 0.12509 0.22051 -0.24612 -0.17015 0.04139 0.17285 -0.13177 -0.25175 0.034031 -0.061739 0.20198 0.14368 -0.044223 -0.2121 0.013419 0.086437 -0.1761 0.13969 0.022344 0.11731 0.0076201 -0.10606 -0.083155 0.0075922 0.25459 -0.37115 -0.1289 0.023394 -0.025032 -0.036198 -0.022419 -0.27728 -0.2896 -0.3423 0.23849 0.057988 -0.2563 -0.12233 0.0051539 0.040112 0.11835 0.31111 -0.023985 -0.043196 0.13266 -0.03122 0.067492 0.017268 0.055595 0.30922 -0.22997 -0.074666 -0.14242 -0.084856 -0.047021 0.060486 -0.11009 -0.072519 0.20253 0.049351 0.021477 0.067547 0.16383 0.0056944 0.23986 0.10919 0.0051853 0.095031 0.18943 -0.050513 0.38969 0.10908 -0.11552 0.21507 -0.1935 0.042008 -0.42365 0.164 0.029525 -0.058087 0.16362 -0.042794 0.21177 -0.25047 -0.15306 0.037692 0.33539 -0.057456 0.11462 -0.049876 0.25206 0.0077716 -0.091454 0.036186 -0.16546 0.12949 0.13531 -0.26517 0.0060294 0.14028 -0.14313 0.11632 0.028765 -0.15191 -0.021983 -0.34004 0.038987 -0.014216 0.006386 -0.10758 0.078099 0.272 -0.052393 0.13217 -0.10364 0.041706 0.079724 -0.35222 0.24378 0.11719 0.0021597 0.17218 -0.11274 -0.041615 -0.01526 0.0045694 -0.063877 0.045403 -0.083688 -0.069679 0.016194 0.0043697 -0.045345 0.0037415 -0.068831 0.046561 -0.15506 -0.027523 0.068674 -0.17397 0.11826 0.1185 -0.23665 0.15517 -0.13734 -0.19975 0.074193 -0.048093 -0.064651 -0.26361 0.11389 0.08212 -0.03594 -0.15988 -0.1238 0.061871 -0.076135 0.28576 -0.1081 -0.075842 -0.06997 -0.071967 -0.18079 -0.083632 0.24245 -0.078145 -0.061139 0.043681 -0.12273 0.1401 -0.20382 -0.1133 -0.091084 -0.16453 -0.042683 -0.013302 -0.14275 -0.15444 -0.078247 0.0093998 0.31573 -0.026361 -0.27273 -0.086384 -0.11714 0.14541 0.06654 0.081206 -0.10332 -0.31156 -0.035391 -0.0052227 -0.055988 -0.32423 0.13775 -0.20345 -0.053037 0.038367 0.085608 -0.035825 -0.08321 -0.1999 0.23801 -0.012084 -0.075085 -0.10164 0.010143 0.096352 -0.075505 -0.29495 0.068901 -0.061665 0.16919 0.11822 0.18974 -0.024853 0.21059 -0.021493 0.21493 -0.18629 0.035271 0.1641 0.18822 0.16974 0.21809 -0.079456 0.18257 -0.086309 -0.077234 0.058929 -0.13686 0.083818 0.069731 -0.039601 0.022207 0.23037 0.042366 0.19777 0.062417 0.098891 0.043561 0.11591 0.11236 0.0057548 0.033963 -0.041044 0.0060226 0.067746 -0.32903 -0.080883 -0.013591 -0.11076 0.0040496 0.10059 0.22805 0.042601 0.25635 0.1176 0.13149 -0.040224 -0.16541 0.15898 0.11568 -0.080881 0.27631 -0.11289 0.01692 0.29648 0.069463 -0.022744 0.10815 -0.17954 0.21782 0.082322 -0.34796 -0.15309 -0.027291 0.021986 -0.017383 0.1518
a -0.13253 -0.017077 -0.078252 -0.16541 0.068266 -0.02265 0.061271 0.026278 0.060673 -0.11767 0.084418 0.047363 0.1119 0.071365 0.14012 0.10514 -0.14847 -0.17365 0.025572 -0.011368 0.13041 -0.042524 0.013997 -0.090379 -0.10388 -0.017853 -0.042356 -0.059752 -0.047645 0.066368 0.1135 -0.20841 0.099984 0.08978 0.047285 -0.13074 -0.082702 0.060678 -0.23697 0.03333 0.0087677 0.065268 -0.10607 -0.11475 0.0022529 0.065673 0.21127 -0.074839 -0.012437 0.12526 -0.14745 0.086124 -0.19108 0.089264 -0.22833 -0.16771 -0.20181 0.27135 0.11744 -0.17451 -0.19933 0.27819 -0.099105 -0.20679 0.069727 -0.093572 -0.1229 0.21422 0.065493 -0.039098 -0.045647 -0.14076 -0.11941 -0.061497 -0.007063 -0.031809 -0.09127 -0.47815 0.2287 0.064534 -0.020369 -0.043949 0.16125 -0.08899 0.071421 0.1796 -0.065084 0.17894 0.072452 -0.1722 0.11762 0.31809 0.36261 -0.14426 -0.25203 0.14836 -0.3203 -0.15199 -0.063202 -0.23028 -0.053616 0.099412 0.16376 0.0042902 -0.15969 0.039373 0.30281 -0.11206 0.011243 0.02951 -0.070955 0.18384 0.12968 -0.0074168 -0.32503 0.18093 -0.049715 0.00059013 -0.12811 0.020865 -0.0040348 -0.019942 0.061452 -0.086089 -0.031384 -0.11165 0.090343 -0.0030948 0.15876 0.20456 0.17566 -0.0001529 -0.0030753 0.13285 -0.094554 0.045945 0.055658 -0.18592 0.11391 0.15399 -0.35532 0.078104 -0.27464 0.056793 -0.15711 -0.20147 0.01142 0.030599 0.24537 0.081639 -0.29542 0.15685 0.11443 0.01749 -0.094805 -0.08774 -0.028179 0.044583 0.17977 -0.0069087 0.12481 0.012488 0.046858 0.051755 0.044703 0.075216 0.1696 -0.073725 -0.18461 -0.15902 0.37901 0.33685 0.075968 -0.078445 -0.19569 -0.0064035 0.043019 -0.19784 0.045651 0.16746 0.047647 0.061587 0.025333 -0.11982 0.056415 0.030011 -0.084398 -0.1502 -0.20716 0.20504 0.24241 -0.11165 0.11459 -0.012062 -0.31885 0.063132 0.12977 0.089499 -0.0073657 -0.0078118 -0.035583 -0.34791 -0.10302 0.17372 0.056082 0.048568 0.14768 -0.097348 -0.032278 -0.025123 -0.10566 -0.019949 -0.13377 0.062357 -0.038706 -0.076871 0.10032 -0.08064 0.010823 -0.18202 -0.14357 -0.21595 0.083173 -0.072928 -0.26747 0.24052 -0.24604 0.028883 -0.087123 -0.037817 0.1596 -0.17455 0.21931 0.17178 0.18266 0.092512 0.036326 0.023202 -0.034425 -0.15555 0.042884 0.084983 -0.050393 -0.061068 0.11583 -0.11799 -0.065347 0.15129 -0.16887 -0.25164 -0.056108 -0.12822 0.032063 0.07424 -0.032429 0.1961 -0.17878 0.031065 0.041296 -0.13604 0.19474 0.14642 0.084645 -0.022283 -0.047865 -0.10491 -0.030911 0.0070776 0.048911 -0.14946 -0.0074452 0.13646 0.064321 0.14429 0.36484 0.20159 0.28287 0.043097 0.12375 0.00032914 0.18316 -0.21901 -0.29825 -0.31775 0.21263 0.013035 0.28762 0.12033 0.080882 -0.076299 -0.19848 -0.24311 -0.010403 0.081198 -0.38593 -0.064275 -0.040865 -0.066402 0.18289 -0.041726
( -0.081504 -0.22029 -0.025816 -0.06648 0.13297 0.1428 0.0065786 0.051766 0.037313 -0.076294 0.048909 -0.0034597 0.14152 -0.06038 0.040722 0.1702 0.16136 0.073393 -0.042542 0.0277 0.13252 0.22179 -0.28562 -0.1665 0.013732 0.18419 -0.1268 -0.25011 0.043848 -0.054228 0.18548 0.1448 -0.0093895 -0.24091 -0.010699 0.065146 -0.14045 0.15507 0.047086 0.10338 -0.0055434 -0.083758 -0.11067 0.032975 0.24253 -0.40721 -0.16494 0.020369 -0.0091949 -0.030548 -0.044724 -0.26648 -0.27462 -0.32803 0.24189 0.02344 -0.26799 -0.084031 0.049203 0.025154 0.082002 0.26659 -0.060347 -0.060049 0.093808 -0.049008 0.072978 0.0018602 0.048216 0.29193 -0.23387 -0.046952 -0.13845 -0.076218 -0.097179 0.081987 -0.11034 -0.086508 0.20944 0.0029356 0.056286 0.11222 0.1207 -0.0039044 0.23061 0.10337 -0.016467 0.14264 0.17074 -0.074473 0.3694 0.083157 -0.15874 0.17732 -0.23268 0.02446 -0.41603 0.1546 0.085788 -0.042026 0.18005 -0.069929 0.22099 -0.2337 -0.17792 0.044946 0.3622 -0.090606 0.10599 -0.06992 0.23391 0.047267 -0.10707 0.029757 -0.22411 0.18208 0.12369 -0.24093 0.0082499 0.16182 -0.13511 0.10209 0.0015783 -0.11645 -0.022354 -0.3379 0.081566 -0.022334 0.037987 -0.063727 0.099064 0.2944 -0.024411 0.15128 -0.094486 0.037203 0.11339 -0.36245 0.24645 0.14717 -0.0029007 0.14207 -0.06741 -0.079823 -0.04613 0.014151 -0.03978 0.026656 -0.029518 -0.041995 -0.02014 0.010159 -0.022124 0.0010898 -0.089976 0.067072 -0.14296 -0.057496 0.07339 -0.20556 0.12315 0.090053 -0.29384 0.13804 -0.13206 -0.20857 0.085512 -0.023586 -0.072059 -0.27064 0.084277 0.069717 -0.021248 -0.18075 -0.083194 0.086494 -0.083193 0.24809 -0.10144 -0.05131 -0.077588 -0.068835 -0.1533 -0.051309 0.26963 -0.1227 -0.035863 0.086171 -0.12833 0.14128 -0.20442 -0.11538 -0.090387 -0.19955 -0.040488 -0.074567 -0.12947 -0.14167 -0.052203 0.016245 0.33105 -0.026254 -0.27478 -0.083792 -0.099066 0.13689 0.092367 0.061944 -0.1099 -0.30542 -0.028509 -0.044099 -0.06188 -0.3415 0.13481 -0.2028 -0.029296 0.11998 0.077832 -0.0058095 -0.11959 -0.16546 0.24737 0.024344 -0.080648 -0.093899 0.038559 0.14931 -0.064706 -0.25632 0.058456 -0.099345 0.1671 0.11125 0.18862 -0.02924 0.20765 -0.068884 0.21514 -0.24035 0.00039442 0.13629 0.14475 0.15064 0.26951 -0.091378 0.19405 -0.096526 -0.071446 0.046468 -0.13096 0.062753 0.072447 -0.042486 0.047416 0.26886 0.0018881 0.15216 0.056317 0.050622 0.052377 0.1182 0.11042 -0.042113 0.036615 -0.11395 0.0030234 0.10519 -0.32015 -0.069021 0.00078451 -0.066062 0.0047709 0.098979 0.19306 0.081636 0.2767 0.11767 0.12474 -0.021073 -0.17137 0.1422 0.080874 -0.095146 0.28735 -0.16372 0.013124 0.32139 0.045767 -0.02447 0.11723 -0.20035 0.16626 0.069258 -0.33046 -0.15606 -0.037927 0.053096 -0.018231 0.10496
que -0.038702 0.0086242 0.00077157 0.011074 0.14201 0.12204 -0.0049101 0.17932 -0.02433 -0.30732 -0.070185 0.041497 0.027147 -0.039159 -0.080597 0.070478 0.083426 -0.030201 -0.21576 0.0038433 -0.061426 -0.028136 0.020878 -0.243 0.17287 -0.12883 -0.0076604 -0.10034 -0.22452 -0.076677 -0.12778 0.12221 -0.10095 -0.093849 0.1053 -0.012211 -0.23614 -0.03151 -0.15168 0.18146 -0.088749 -0.062043 -0.011807 -0.16943 0.037954 -0.050114 -0.0077692 0.027901 -0.058757 0.13625 -0.25276 -0.020305 -0.161 0.011873 -0.061759 -0.11908 -0.037837 -0.002454 0.088556 -0.10373 -0.043333 0.019475 0.10165 -0.095659 0.21836 -0.27419 -0.12671 0.019737 -0.14476 -0.064958 0.019528 -0.10012 -0.028757 0.16575 -0.063639 0.12385 0.046977 -0.091123 0.33933 0.20304 -0.038555 -0.086799 0.13606 -0.085937 0.032539 -0.050835 -0.027413 0.042341 0.098698 -0.044587 0.16227 0.2322 0.43877 0.0041525 0.18282 -0.13865 -0.29757 0.00071229 0.075029 -0.010075 -0.032888 0.12796 0.017071 -0.086523 0.03834 0.016108 0.14473 -0.10349 -0.031366 0.17604 -0.0058138 -0.0086311 -0.077493 0.01061 -0.15291 0.10333 0.013958 0.17951 -0.090112 -0.10271 0.053688 0.0082842 0.025145 -0.039548 -0.24779 -0.11794 0.026315 0.0087477 0.052779 -0.17124 -0.10942 0.047744 0.050161 0.17626 -0.12449 0.021336 0.078065 -0.062668 -0.061661 0.060613 -0.21603 -0.074075 0.055009 0.074684 0.15876 -0.15813 -0.0061331 0.057663 0.27089 -0.026951 -0.031654 0.15204 -0.024291 -0.10437 -0.12719 -0.15331 -0.16721 -0.057534 0.053961 0.082827 -0.061251 0.086969 0.13845 0.10223 0.10328 -0.0064714 -0.016011 -0.068897 0.0080651 0.073137 0.20564 0.082089 -0.053984 -0.050574 -0.11107 -0.52469 0.13741 -0.082242 -0.032677 0.031637 -0.129 -0.022784 0.067367 -0.030601 0.060745 -0.0098268 0.14137 -0.12874 -0.10776 0.19371 0.086558 0.10116 0.065453 0.025947 -0.18269 -0.053352 -0.050394 -0.11327 -0.024244 0.1126 0.083827 0.16472 0.089325 0.019994 0.000135 -0.11309 -0.018163 0.069098 -0.071413 0.091049 -0.056868 0.03339 -0.088129 0.11689 -0.157 -0.17819 -0.016262 -0.11472 0.075303 -0.0071386 -0.097264 -0.050694 0.141 -0.22238 -0.068403 0.14747 0.0020519 -0.058379 -0.14474 -0.012931 0.19403 -0.12452 -0.0004775 0.045677 0.054207 0.11225 0.12055 0.12687 -0.21635 0.02341 0.045408 -0.10185 0.07474 -0.080815 0.14055 0.10147 0.0080584 0.10113 -0.02742 -0.080697 -0.16732 -0.017648 -0.042538 0.11205 -0.1534 0.033973 -0.018983 0.027517 -0.063575 0.041867 0.13049 0.041156 0.094057 -0.047761 0.051057 0.12032 -0.19313 0.22349 0.0076439 -0.28712 0.015154 -0.088411 0.094262 0.24222 -0.050968 0.10292 0.12244 0.073916 0.052675 -0.0023285 0.019997 0.031177 -0.23051 -0.15433 0.059313 -0.13798 0.12372 0.27089 -0.077477 -0.048017 -0.14257 -0.079467 0.052574 0.038816 -0.3502 -0.082367 -0.062939 -0.067798 -0.037089 0.055804
' -0.11836 -0.29674 -0.17452 -0.02183 0.3854 0.038183 -0.09706 0.045106 0.26113 0.053741 -0.010302 -0.11519 -0.139 0.18823 0.095857 0.065877 0.16268 0.051766 -0.15294 0.1595 0.13268 0.012126 -0.096254 -0.23652 0.15869 0.17071 -0.0088163 -0.026607 -0.18882 0.11568 -0.071149 0.11592 0.039524 -0.15261 -0.045151 0.23324 -0.23958 0.38519 0.12599 0.16989 0.046644 0.095438 0.32701 -0.12021 0.037227 -0.31144 -0.10656 0.016233 -0.10064 0.13041 -0.1091 -0.0189 -0.12905 -0.13439 0.21363 -0.20565 -0.23123 -0.053927 -0.082885 -0.14398 0.1021 -0.046358 0.27685 0.10973 -0.10434 -0.15695 0.088075 0.12497 -0.091945 0.044901 -0.12128 0.18954 -0.17562 -0.2302 0.020411 -0.061541 -0.056636 0.072972 0.21063 0.2115 -0.18312 0.17694 -0.13276 -0.030071 -0.086828 0.024845 0.059624 0.33101 -0.12184 -0.09484 0.38716 0.23419 0.015439 0.34604 -0.2106 -0.017854 -0.12436 -0.015443 0.12721 -0.1689 0.30565 0.0023939 0.11102 -0.33713 -0.38025 -0.080234 0.02048 -0.27364 -0.039193 0.22351 0.18548 -0.0092692 -0.17515 0.18849 -0.3323 0.18781 0.080894 -0.27626 -0.17995 -0.04032 0.013485 0.062676 0.23246 0.041194 0.18506 -0.20388 -0.028641 -0.06006 0.1003 -0.096673 0.059508 0.12653 -0.37864 0.069989 -0.016464 0.0099493 -0.15326 -0.46768 0.43794 0.32718 -0.23319 0.13393 -0.24049 -0.012395 -0.23674 0.20248 0.081315 -0.14032 -0.20049 -0.1004 0.032659 -0.12013 -0.078338 0.40657 -0.11939 -0.062112 -0.407 -0.33166 0.026972 -0.24778 0.12408 -0.1482 -0.12281 0.15578 0.014136 -0.24863 0.060795 0.010391 -0.16444 -0.038078 -0.1129 0.17079 0.057888 -0.14706 0.069127 0.028985 -0.08894 0.10639 0.00067797 -0.24109 0.031317 -0.096531 -0.1395 -0.048631 0.23318 0.11904 -0.11372 0.040947 -0.035812 0.12657 -0.31123 -0.026187 0.14437 -0.22927 -0.10886 -0.22106 0.066646 -0.11099 -0.023178 0.18305 0.11735 -0.32464 -0.27728 0.0093572 -0.13799 -0.0031362 0.15868 0.083756 -0.074739 -0.1326 -0.16006 -0.041065 0.085395 -0.22256 0.024094 -0.35986 -0.3135 0.31648 0.066154 -0.051541 -0.099194 -0.26963 0.09473 0.27106 -0.22318 -0.032717 0.09524 0.21004 -0.026159 -0.083212 0.059352 -0.092877 -0.0044306 -0.025953 0.3687 -0.15241 0.40696 -0.12473 -0.061482 -0.21207 -0.097556 0.029649 -0.0006575 0.084001 0.043506 -0.05968 0.23109 -0.080969 0.10387 -0.11302 -0.4539 -0.24457 0.069702 0.18392 0.023288 0.22735 -0.062524 0.14673 0.01855 -0.27283 -0.09295 -0.11236 0.17597 0.1441 -0.15355 -0.18038 -0.032635 0.036988 -0.24145 -0.10381 0.05884 -0.023102 0.20808 0.30367 0.017053 0.10208 0.24815 -0.073778 0.20011 0.062899 -0.15163 0.24028 -0.16895 0.10269 0.41853 -0.044837 0.12294 0.12029 -0.2015 -0.041586 -0.0035587 -0.095798 0.34686 -0.04594 -0.48195 -0.026319 0.020586 -0.069869 0.055867 -0.093305
del 0.12511 -0.11356 -0.10117 -0.041232 0.11793 0.080547 0.048966 0.038039 0.052792 -0.32508 -0.0040684 0.13197 -0.012451 -0.054529 -0.16973 -0.1843 0.080872 0.034845 0.058705 -0.035717 0.062015 0.043697 0.043077 -0.16279 0.10851 -0.15874 0.067653 -0.083222 0.035927 -0.23921 0.10741 -0.043789 -0.056639 -0.54948 0.034934 0.043128 -0.14061 -0.048624 -0.16491 0.25054 0.077682 -0.037289 -0.11772 -0.2639 -0.041135 0.013089 0.070849 -0.19997 -0.23296 -0.037245 -0.19837 0.12613 -0.1027 -0.0095142 0.12443 -0.043974 -0.1052 -0.036241 0.23077 -0.073834 0.022424 0.0066607 0.29928 0.099179 0.32155 -0.27715 0.10995 -0.092885 -0.040869 -0.067194 -0.15642 -0.12856 -0.34629 -0.13038 -0.070967 -0.014408 -0.17186 -0.10692 0.27864 0.023128 0.047695 0.019942 0.17069 0.026122 0.03972 0.041297 -0.13293 0.23989 0.27677 -0.088837 0.60169 0.16106 0.047646 0.20677 0.064393 -0.0041769 -0.19822 -0.11224 0.078672 -0.060239 0.0018077 -0.10391 -0.14997 -0.020815 -0.22114 0.33253 0.047687 -0.14722 0.27829 0.11307 0.33539 -0.059279 0.088827 0.14408 -0.070453 0.28962 0.082289 0.01942 -0.10253 -0.049808 -0.19293 -0.018971 -0.062883 -0.1355 -0.22951 -0.40703 0.11305 -0.34868 0.28155 -0.071224 0.20441 -0.18329 -0.021384 -0.18423 -0.10574 -0.023337 0.071715 -0.25611 0.36432 0.1323 0.042877 -0.089187 -0.052961 0.026645 0.16892 -0.12856 -0.043447 -0.36204 0.037507 -0.0081947 0.10371 -0.10531 0.24168 -0.04446 -0.2065 -0.10938 -0.049947 -0.072609 -0.39286 0.024316 -0.10663 0.17179 -0.10297 -0.13881 0.1634 0.10671 -0.091632 -0.034524 0.060088 -0.24015 0.067335 0.042846 0.09122 0.022409 -0.25987 -0.25752 0.062926 -0.14392 -0.072172 0.21757 -0.048497 -0.19564 -0.045272 0.050973 0.13445 0.085484 -0.11099 0.15104 0.11587 0.21183 -0.004581 -0.0086826 0.0057098 -0.055162 0.11528 0.036 -0.013786 -0.14703 -0.11362 0.013928 -0.032177 0.058529 -0.16239 0.23489 -0.09016 0.13336 -0.015311 0.13878 0.19784 -0.1151 -0.027759 -0.21591 0.03173 -0.22029 -0.05227 -0.094414 0.13735 -0.12395 0.13436 0.21914 -0.31725 -0.043064 0.182 -0.18554 0.15847 0.1633 -0.22059 0.039926 0.034601 0.049889 -0.18335 0.26489 -0.10948 0.099976 -0.072433 -0.011918 0.21654 0.071625 -0.047697 0.010694 -0.27025 0.18794 0.13919 -0.28229 0.14086 -0.16589 0.055339 -0.013901 0.10695 -0.13944 -0.095585 -0.024852 0.013246 0.075157 -0.084842 -0.038859 -0.20245 -0.11806 -0.043745 -0.15584 0.18593 0.18813 0.062483 -0.12394 0.10119 0.0093401 0.13786 0.25532 -0.082407 -0.2512 0.030577 -0.17696 0.17615 0.26575 0.089431 -0.18483 0.2384 0.12301 0.043993 0.066571 -0.087169 0.26724 -0.073823 -0.27908 0.20137 -0.13607 0.071451 -0.0071175 -0.15018 0.057277 -0.027279 -0.22261 0.05437 -0.13837 -0.26756 -0.17235 0.041046 -0.11271 -0.24787 -0.10877
los -0.13455 -0.094197 -0.14498 -0.29783 0.15682 0.051993 0.026432 0.078294 -0.27198 -0.18817 0.012752 0.057398 -0.0094288 0.025771 0.082695 0.068136 0.15597 -0.015832 -0.046213 0.1477 0.038362 -0.040585 -0.12725 -0.13178 0.04039 -0.29563 -0.12906 -0.22793 -0.073565 0.066633 0.044477 0.061606 0.0061199 -0.26962 -0.17224 0.038867 -0.13261 0.17924 -0.23165 0.25464 -0.093519 0.087856 -0.038251 0.017315 -0.14874 -0.033933 0.10015 -0.2125 -0.2527 0.18546 -0.31545 -0.10581 0.024182 0.17361 0.087631 0.25562 0.10338 0.22623 0.14654 -0.0046173 0.11132 -0.047408 0.036001 -0.051439 -0.10749 -0.11295 -0.11683 0.24708 -0.075021 0.040798 0.032701 -0.29321 -0.18758 0.072831 0.1914 -0.010857 -0.29616 -0.065414 0.22664 0.081892 0.043644 0.23298 0.36124 -0.18775 0.050515 -0.087234 -0.43725 0.081645 0.19076 -0.066111 -0.085643 0.2795 0.16781 0.14994 -0.047965 -0.12879 -0.31797 0.015742 0.053454 0.085351 0.064033 -0.058088 -0.12471 0.037102 -0.017266 0.35259 0.49539 0.033369 0.17829 0.11872 -0.031307 -0.022397 0.21156 -0.012993 -0.33554 0.21574 0.02978 -0.17305 0.035738 -0.090291 0.026764 0.12744 0.065008 -0.14625 -0.10994 -0.076602 0.0045502 -0.11749 0.24427 0.24116 0.19796 0.079288 -0.029204 0.085216 -0.085154 0.048981 -3.3362e-05 -0.039827 0.12664 0.065937 -0.018005 -0.085854 0.04631 0.22357 -0.0099678 0.0048451 -0.056549 -0.037681 0.33916 0.0059565 0.030827 0.10607 -0.030954 -0.21767 0.072054 -0.057308 -0.16833 -0.046941 0.12617 -0.0050172 0.10014 0.11801 0.12779 0.13622 0.25481 -0.11586 0.21598 -0.2648 0.044815 0.16675 0.19301 0.090269 0.10158 0.08034 -0.020897 -0.38905 -0.046312 -0.32412 -0.1978 0.13333 -0.32183 0.070367 0.077418 -0.074967 0.060043 0.17975 0.02531 -0.021683 -0.0033385 0.076093 0.074152 0.05415 0.19405 0.027142 -0.14228 -0.05237 -0.003171 -0.027045 -0.279 0.032313 0.010017 0.072834 -0.10316 -0.02288 -0.091204 0.017702 0.060888 -0.071883 -0.17693 0.059917 -0.067411 -0.30924 0.036512 0.19358 -0.20298 -0.10136 0.040609 -0.088891 -0.0079336 -0.11688 -0.045257 -0.073986 0.1088 -0.21235 0.04433 0.085359 -0.19586 -0.11329 0.13977 0.096074 0.17655 0.044518 0.058456 -0.066447 -0.049595 0.089362 0.075498 0.12623 0.13148 -0.038971 -0.028924 -0.021171 0.092653 -0.1089 0.29141 -0.15799 -0.08725 0.025724 0.14417 -0.095494 -0.14092 -0.0081647 -0.052707 0.013073 -0.024311 0.015915 0.091258 -0.073356 0.049226 -0.134 0.12116 0.022994 0.21113 -0.16094 0.023739 0.089527 -0.056551 -0.011425 0.078649 -0.20982 0.1994 0.12707 0.1151 0.18012 0.14453 -0.074755 0.10321 0.11815 0.31333 0.14279 -0.26521 0.0064974 -0.20811 -0.23175 0.054793 -0.070577 -0.13062 0.18246 0.044917 -0.11873 -0.22657 -0.23682 0.30815 -0.16793 -0.26435 -0.060378 -0.26468 -0.066438 -0.0046807 -0.0296
se 0.15509 0.11195 0.033808 0.12276 0.071166 0.13568 0.11653 -0.040014 -0.022282 -0.214 0.10302 0.019944 0.19495 -0.11618 -0.077964 0.15189 -0.075811 -0.019945 -0.33558 -0.028215 0.040247 0.076963 0.20174 -0.33472 -0.027265 0.05845 0.0032621 -0.13853 -0.021584 -0.029455 -0.28777 0.17617 -0.09765 0.084366 -0.2095 -0.11599 -0.20823 0.087019 -0.12634 0.14449 -0.036357 -0.14511 -0.16929 -0.23586 0.09428 -0.16331 0.21963 -0.18721 0.0031938 0.14321 -0.25534 0.012515 -0.15802 -0.099371 -0.0063441 -0.14217 -0.31411 -0.12992 -0.0048258 -0.16205 -0.036163 -0.11167 0.27621 -0.054693 0.28449 -0.18759 -0.038221 0.034099 0.091747 0.16246 0.094477 0.10376 -0.2037 -0.065388 0.071098 -0.11454 -0.057048 -0.1664 0.32914 0.14516 -0.23408 -0.27706 0.20647 -0.10137 0.019291 0.0058973 -0.010996 0.051257 0.21162 -0.066077 0.21631 0.12956 0.34311 -0.032458 0.31889 -0.24062 -0.19581 0.02138 -0.0026965 0.15242 -0.14746 -0.0554 -0.088734 0.20186 0.020901 0.22315 0.051761 -0.13301 0.24109 0.28273 0.082361 0.18608 0.047202 -0.056581 -0.16715 0.11215 0.092669 0.070356 -0.080655 -0.099106 0.12376 0.13701 0.13212 -0.16568 -0.16008 -0.20337 0.17878 0.063271 0.030137 0.081483 -0.18512 0.14061 -0.043571 0.11492 -0.24137 -0.024386 -0.072297 0.0019228 -0.069387 -0.022059 0.066557 -0.16116 -0.076827 0.21746 0.017114 0.025234 -0.0026123 -0.17316 0.3873 -0.089727 0.0097783 0.0036207 -0.097681 -0.20192 -0.10438 -0.12896 -0.031328 0.21185 0.02885 0.020546 0.052811 -0.0096537 -0.10839 0.16569 0.18301 0.054053 0.16876 0.082115 -0.1885 -0.029776 0.16811 0.091905 -0.020117 -0.14781 -0.1942 -0.39979 -0.034248 0.061736 -0.2906 0.19599 -0.13583 0.38025 0.21617 -0.14944 0.2391 0.15215 0.14748 -0.20903 0.074036 0.23507 0.0067925 0.1498 0.031775 -0.016554 -0.35907 -0.050765 0.16811 -0.071066 -0.17461 -0.11497 -0.19497 0.043203 -0.062883 0.0046239 -0.2847 -0.079699 -0.15823 -0.14689 -0.1352 0.17806 -0.063256 -0.021138 -0.10636 0.0679 -0.10804 -0.27108 -0.0022446 -0.024037 0.12853 -0.081265 0.048271 -0.053349 -0.060521 -0.34323 -0.10342 0.12732 -0.12305 -0.28732 -0.20114 0.27669 0.049497 -0.015583 -0.093925 -0.050667 0.098268 -0.10257 0.18274 0.25777 -0.071739 0.036075 -0.086535 -0.050883 0.10268 -0.049456 0.061481 0.23505 -0.043672 0.091086 -0.00086363 -0.046406 -0.31148 -0.27056 0.14591 0.1058 -0.17529 -0.063298 -0.15698 -0.12721 0.0045622 0.065137 -0.0059673 -0.072511 -0.00083391 -0.00021312 -0.24495 0.07035 -0.13361 0.25909 -0.075938 -0.26896 0.0506 0.16662 0.078144 0.1882 -0.10593 -0.013542 0.11659 0.34631 0.018934 -0.10691 0.056855 0.065257 -0.26363 -0.07667 0.16965 -0.19568 0.0077069 0.27691 0.098584 -0.061838 -0.20506 -0.073075 0.096493 0.054031 -0.39253 -0.0093736 -0.11671 0.15406 0.21613 -0.044394
por -0.02695 -0.15316 -0.037509 -0.065413 -0.029277 0.12356 0.29935 0.041954 -0.19898 -0.016262 0.16515 0.15258 0.073109 0.028666 -0.081802 -0.0021973 0.3231 -0.16101 0.016373 0.22075 -0.051241 0.048095 -0.15923 -0.11768 0.20112 0.099139 0.12891 -0.14163 0.078846 -0.17522 0.24304 0.1374 -0.27428 -0.17448 -0.0017061 0.045946 -0.18376 0.13199 -0.27971 0.17293 0.18939 0.23103 -0.18427 -0.0027838 0.15583 -0.05803 -0.064198 -0.25043 -0.12383 0.013256 -0.10865 0.10075 -0.095342 -0.041971 -0.14364 -0.044906 0.074501 0.10411 0.079491 -0.28283 0.07309 -0.0038304 0.11722 -0.10762 0.14524 -0.29194 0.059087 0.064134 -0.062534 -0.23255 -0.001032 0.029868 0.13175 0.048567 -0.13587 0.14046 0.033323 -0.053796 0.17995 0.1564 -0.013263 -0.01265 0.16418 0.17026 -0.014298 -0.0095024 -0.043663 0.13229 0.1336 0.11382 -0.13623 0.17388 0.010935 0.15449 -0.29153 -0.064732 -0.47578 -0.06727 -0.0022061 -0.21754 0.072597 -0.17191 -0.10803 -0.1049 -0.37658 0.21934 0.29064 -0.16422 -0.0032335 -0.016668 0.15901 0.042555 -0.09215 0.1088 -0.1435 0.1668 0.19538 0.00023205 -0.11606 0.078535 -0.039492 0.024624 0.14047 0.10249 -0.19477 0.038619 -0.17225 0.28581 0.092266 -0.093402 -0.015818 0.20855 0.18356 0.14653 0.046241 0.15033 0.036993 0.20182 0.017071 -0.116 0.032466 0.042011 0.036846 0.058302 0.12845 0.0065069 -0.077261 -0.082137 0.040154 0.28841 0.22983 0.074358 0.033589 0.022532 0.11244 -0.031203 0.00074134 -0.17665 -0.092081 0.15038 0.31068 0.041685 0.056297 0.020889 0.21598 0.044644 0.14652 -0.36328 0.21457 0.046284 0.19383 0.12743 -0.0086308 0.074636 -0.27547 -0.12958 -0.30073 0.19556 0.033121 -0.049483 -0.026872 -0.043419 0.11986 -0.18482 0.23589 -0.0090992 -0.11652 -0.018219 -0.061031 0.27542 -0.085882 -0.10445 0.42294 -0.18498 -0.030793 0.22295 -0.0261 0.00015189 -0.082933 0.29022 0.21049 0.040109 0.093765 0.061909 -0.22859 0.056594 0.054239 -0.013646 0.050323 -0.07755 -0.010331 -0.11431 -0.12199 0.010605 -0.15668 0.0084931 0.012392 -0.12606 -0.039024 0.038417 -0.27113 -0.0383 0.16519 -0.043381 0.050633 0.098597 -0.080482 0.15336 -0.067979 -0.28989 -0.033049 -0.22669 0.11827 -0.014634 0.2027 0.0021482 0.043801 0.14556 -0.074852 -0.13593 0.11691 -0.036995 0.37345 -0.096838 0.075271 -0.071848 -0.0082004 -0.0080115 0.091366 -0.17549 -0.066809 -0.077452 0.066239 0.024419 -0.090883 0.06116 -0.18838 -0.021947 0.14069 -0.081518 0.071454 -0.10647 -0.024073 0.2066 -0.12183 0.27392 -0.1818 0.05679 -0.25573 -0.20223 0.028458 0.14819 0.14197 0.25044 -0.031043 0.14355 0.20929 -0.0071981 0.008831 0.034828 -0.012113 -0.24996 -0.11847 0.12957 -0.08641 -0.04548 -0.043191 0.044993 -0.11183 0.004734 -0.022543 -0.49314 0.04704 -0.014107 -0.60074 0.01158 -0.11254 -0.21891 0.021475 0.070109
un 0.05141 0.12289 -0.13174 0.10995 0.14251 -0.12131 -0.10925 0.078011 -0.010326 -0.32513 0.29902 0.017989 0.16409 -0.059443 -0.086004 0.0092486 0.15837 0.25412 -0.065385 -0.064508 -0.026243 0.093329 -0.054134 -0.3628 0.051013 -0.074507 0.083234 -0.18572 -0.02429 -0.24912 0.024456 0.14983 -0.11395 -0.08824 0.070654 0.12416 -0.025436 0.3127 -0.19407 0.21319 0.15978 0.18832 0.14762 -0.25405 0.16 -0.098571 0.071454 0.10318 0.11319 0.028142 -0.19745 -0.11576 -0.20593 0.055105 0.072543 0.11487 -0.25282 -0.011647 0.072895 -0.14482 -0.070392 -0.041009 0.1272 0.0033492 0.081973 -0.31756 0.18825 0.006727 -0.087939 0.066022 0.048831 -0.054799 -0.22327 -0.068244 -0.11013 -0.034104 -0.073326 -0.019294 0.034523 0.22063 0.14737 0.013377 -0.0028709 0.027052 -0.11308 -0.074432 0.15796 0.13659 0.18617 -0.067019 0.29745 0.14861 0.25185 0.25743 -0.11639 0.056973 -0.58315 -0.10078 0.025722 -0.062348 -0.04146 0.0093828 -0.034278 -0.09774 0.013556 -0.079669 0.028754 -0.16392 -0.10474 -0.031381 0.15048 0.1545 -0.023015 0.17192 -0.18156 0.3675 -0.0077337 0.20999 -0.089518 -0.018632 0.057479 0.19737 0.001661 0.11543 -0.22591 -0.35175 0.097874 -0.077698 -0.071496 -0.27808 -0.034539 -0.28193 0.019393 0.049771 -0.057938 -0.04252 -0.11135 -0.099795 0.05574 -0.033542 -0.17452 -0.10426 -0.055223 0.08585 0.090179 0.099492 -0.01548 -0.012432 0.14281 -0.075773 0.17471 0.053274 0.084889 0.14352 -0.23501 -0.08709 -0.18232 0.038743 0.046775 0.17765 -0.019671 0.19433 0.015672 0.0082861 -0.048936 -0.15039 0.043881 -0.088843 0.018851 -0.13556 0.2123 0.31168 0.07982 0.0022683 -0.18194 -0.39655 -0.039223 -0.25352 -0.056278 0.13827 -0.10805 0.19792 0.067747 0.035651 0.22717 0.16656 -0.1816 -0.09907 -0.04725 -0.05292 -0.013564 -0.030246 -0.078163 -0.17113 0.029543 -0.15392 -0.033347 0.033911 0.050551 0.17501 -0.13795 0.13913 0.1563 0.015961 -0.25147 -0.13828 0.23313 0.25527 -0.063472 -0.12142 -0.13131 0.13279 0.1129 -0.16955 -0.10198 -0.22688 -0.10687 -0.086112 0.13009 0.077293 0.036301 -0.1273 -0.021841 -0.34427 0.020405 0.048886 -0.24501 -0.1081 0.029618 -0.048206 0.075599 0.10177 0.071211 0.22121 0.18109 -0.011306 0.29643 0.09726 -0.31674 -0.062744 -0.048149 -0.021138 0.17344 0.056571 0.01743 -0.11492 0.15379 0.13892 0.011102 -0.057502 -0.30687 -0.04418 0.11931 0.13241 -0.31877 -0.027315 0.055271 0.20769 -0.073925 -0.32793 0.027671 -0.021868 0.037793 -0.094701 0.020073 0.082171 0.14586 0.10251 -0.1431 -0.18127 -0.18807 -0.047553 -0.014045 0.30854 -0.1261 0.039566 -0.067271 0.091402 -0.091793 0.080397 0.030667 0.03448 0.038968 -0.1778 0.19709 -0.025902 0.08632 0.082673 -0.08575 -0.11208 0.13878 -0.16529 0.47045 0.10565 -0.11089 0.018623 -0.043002 0.053299 -0.14785 0.0066921
con -0.01732 -0.0059476 -0.012958 -0.073631 0.11299 0.023723 0.11919 0.077642 -0.073648 -0.25319 -0.007037 -0.037272 0.26783 -0.0050988 -0.060473 -0.059265 0.10684 -0.085954 -0.1199 -0.016604 0.083548 -0.087852 -0.0083232 -0.19484 -0.22161 -0.26423 -0.027158 0.12334 -0.20193 0.0056628 -0.090492 0.050482 0.046861 0.098528 -0.037705 0.10376 0.20144 0.10221 -0.1079 0.021984 0.14912 0.20669 0.14721 -0.14769 -0.057433 -0.14585 0.12658 -0.20341 -0.082306 -0.078119 -0.095694 -0.025083 -0.17184 -0.14764 -0.060627 -0.037519 0.12597 0.0385 0.21742 -0.29114 -0.14489 -0.00296 -0.040246 -0.13903 0.22077 -0.16366 0.09045 0.071061 0.096864 0.16397 0.12995 0.2891 -0.16465 -0.051781 -0.10371 0.23581 0.19262 0.14966 0.26288 0.046626 0.1651 0.19975 0.26301 0.07083 0.12774 0.12702 -0.29442 0.15061 -0.10232 -0.027698 0.29439 0.18873 0.043735 -0.049329 -0.044711 0.089711 -0.33261 -0.076951 0.1421 0.23701 0.18496 -0.097977 0.11931 0.029798 -0.089723 0.29114 0.35369 -0.04986 -0.15517 0.031792 -0.11642 0.20536 0.031915 0.10378 -0.10106 0.32267 0.078311 0.1351 -0.064001 0.024949 -0.16636 0.051535 0.06976 -0.23339 -0.43516 -0.16658 0.037861 0.070576 0.045029 0.11333 0.06666 -0.090079 0.22112 0.075305 -0.1169 -0.045727 -0.021058 -0.1453 0.032512 0.14094 -0.044624 0.26508 0.024316 0.074244 0.028421 0.045104 0.18243 -0.065599 0.3114 0.19075 0.17991 0.0033339 0.028874 0.015516 -0.044001 -0.1293 -0.21925 0.16415 0.069531 0.23898 -0.042317 0.17349 -0.18301 0.083193 0.095882 -0.19536 0.0079951 -0.33568 -0.086938 0.036021 0.11023 0.11053 0.10599 -0.10099 -0.036379 -0.32325 0.0020241 -0.18116 0.12066 0.24212 0.017675 -0.18588 0.060662 -0.1288 0.14883 0.040523 -0.13776 0.10515 0.18526 -0.0025371 0.028715 -0.13676 -0.064156 -0.029467 -0.27855 -0.17008 -0.061207 0.022971 -0.062527 0.28415 -0.10458 -0.037691 0.18905 0.20644 -0.14951 -0.029388 0.010329 -0.011379 0.16388 0.032271 -0.048446 -0.04489 0.071777 0.010164 0.045264 -0.13005 -0.0038394 -0.007366 0.11944 -0.13151 -0.097276 -0.21466 0.053034 -0.27959 0.037228 -0.03186 0.0055056 0.01201 -0.048777 -0.025842 -0.082271 -0.13421 0.18143 0.096541 0.14314 -0.13122 0.14235 0.011658 0.0095833 -0.16248 0.17889 -0.2153 -0.024925 0.048998 -0.10859 0.0089236 -0.049487 -0.10498 -0.13817 -0.20978 -0.056596 -0.14979 0.012795 0.031504 0.017561 0.12872 -0.0047402 -0.075046 0.16351 -0.16415 -0.051817 0.01805 0.019305 -0.043295 -0.13717 0.29374 -0.21329 0.37806 -0.13307 -0.211 0.22369 0.30354 -0.20065 0.25704 0.12276 0.2249 0.22694 -0.070261 0.18268 -0.12148 -0.0071942 0.094678 -0.094865 0.024355 0.16903 -0.024899 0.099513 0.13414 -0.081377 -0.10436 -0.16014 -0.012775 -0.032512 0.033261 -0.33404 0.11743 0.04745 -0.059078 0.086555 -0.0042355
las -0.035358 -0.25243 -0.051162 -0.14055 0.28777 0.21948 0.19724 0.165 0.082439 -0.57341 -0.022369 -0.18335 0.10865 -0.12917 -0.076286 0.051874 0.19421 0.076327 -0.020475 0.10959 0.10859 -0.16869 -0.042274 -0.10045 -0.066562 -0.065237 -0.06469 -0.0091435 0.077807 0.05416 0.076785 0.20554 0.082731 -0.24718 0.14828 -0.019097 0.044777 0.12855 -0.11946 0.0047207 0.17083 0.03682 -0.1035 -0.13386 0.085682 -0.18365 0.12553 -0.36668 -0.08608 0.13263 -0.34057 0.14414 -0.21263 0.057044 -0.11254 -0.29409 -0.051836 0.044264 -0.030662 -0.047667 0.22595 0.088254 -0.042654 -0.094814 0.03321 -0.13574 -0.17089 0.086153 -0.10808 -0.0010436 0.077443 0.07919 -0.36417 0.0015687 -0.083396 0.053927 0.19304 -0.22284 0.10278 0.17839 -0.011445 -0.35122 0.28099 0.028892 0.081218 -0.033416 -0.080073 0.16116 0.11928 0.00087271 0.15972 0.169 -0.0075965 0.16354 0.053395 0.060588 0.0028249 0.017238 0.18922 -0.11006 0.058663 -0.11533 -0.044029 -0.13796 -0.1394 0.3312 0.16431 -0.20591 0.034923 0.0043949 -0.080468 0.12736 0.092545 -0.18393 -0.17889 -0.050266 0.35375 -0.12017 0.028462 -0.076993 -0.0077437 -0.012251 0.22952 -0.026465 0.0037156 -0.10633 -0.024425 0.020816 0.093363 -0.11238 0.017159 -0.15528 0.087618 0.058648 -0.1265 -0.23693 -0.0082992 -0.11833 0.030742 -0.080711 0.15132 0.12118 0.00070052 0.054939 0.21977 -0.15851 0.094477 -0.11114 0.22583 0.081014 0.031442 0.063471 -0.20946 -0.15098 -0.24247 0.072329 -0.15043 -0.031955 -0.037315 0.14382 -0.071515 0.2556 0.13546 0.25142 0.31391 -0.15638 0.20852 0.044861 0.067602 0.030139 0.071802 0.20464 0.016623 0.099293 -0.19126 -0.42204 0.050744 -0.28165 0.12684 0.28764 0.091113 0.052919 0.14369 -0.034067 -0.1158 -0.16921 0.0076255 -0.15822 -0.031688 0.20844 -0.016562 0.1573 -0.027489 0.37448 -0.012806 0.046334 0.099074 -0.21808 -0.11801 -0.1163 -0.15495 0.032434 0.061991 -0.0066036 -0.021806 0.041723 -0.0017651 -0.34405 -0.072662 -0.14904 0.38054 -0.0040056 -0.055567 0.16099 -0.18615 -0.070736 0.12539 0.001732 0.14982 0.14245 0.045643 0.10498 0.14975 0.21506 -0.31203 0.18474 -0.22284 -0.13666 -0.11377 -0.0062296 -0.00084285 0.0013214 -0.13144 0.0258 0.02242 0.14554 0.13784 0.131 0.030736 0.087615 -0.1568 -0.099614 0.33973 -0.036909 0.19286 0.18083 0.17939 -0.14421 -0.093237 -0.10814 -0.075112 -0.20286 -0.031339 -0.046581 -0.48451 0.14232 -0.19136 -0.047421 -0.027613 -0.1042 0.13972 0.19349 0.34463 -0.22006 -0.13928 -0.033312 0.030133 -0.00954 -0.096953 -0.33707 -0.18141 0.33822 -0.040679 0.53266 0.22088 0.10509 0.17444 0.18202 0.075574 -0.20623 -0.030539 0.12162 -0.39683 -0.35486 0.12991 -0.13222 0.019993 0.065352 -0.077299 0.014872 -0.1354 -0.13617 0.073412 -0.1193 -0.36641 -0.14536 -0.085227 -0.10238 0.1044 -0.052818
una -0.03371 -0.10305 -0.035394 -0.053254 -0.072704 0.12174 -0.11008 0.029104 0.054846 -0.18214 0.059086 -0.081983 0.07238 -0.23612 0.12557 -0.036678 -0.051751 0.14581 -0.0089986 -0.12687 -0.015166 -0.022918 0.17192 -0.031358 0.0077209 0.21476 0.13978 -0.11774 -0.19431 -0.15736 -0.23082 0.11406 0.10271 -0.15341 0.13422 0.081596 -0.19677 0.19326 -0.22342 -0.053658 0.31261 0.15469 0.18351 -0.15893 -0.11627 -0.19403 0.1466 0.0048013 -0.22201 0.13118 -0.11217 -0.092938 -0.21739 -0.012924 -0.11078 -0.20695 -0.034867 0.14175 0.1484 -0.093645 0.039507 0.15363 0.026783 0.10717 0.13943 -0.33532 0.054143 0.18603 -0.30857 0.094024 -0.035247 0.079836 -0.096685 0.10905 0.017591 0.010584 -0.11007 0.10383 0.049467 0.03547 -0.11812 0.011085 0.042414 -0.074906 0.12093 0.076953 0.034134 0.024643 -0.32746 0.13242 0.19066 0.24485 0.0077719 0.051723 0.027648 -0.14652 -0.33022 -0.31346 0.041333 -0.04676 0.042272 -0.14919 -0.056348 -0.22578 -0.18233 -0.11032 0.36124 -0.078475 -0.19826 0.11547 -0.19071 -0.097618 0.042711 0.036205 0.024334 0.20754 0.34049 0.2906 -0.15707 -0.10872 0.063465 0.080451 0.041102 0.055583 -0.049202 -0.099314 -0.13614 0.15659 -0.039082 -0.14164 0.086001 -0.041098 -0.0021822 0.099498 -0.27254 -0.2411 0.0069173 -0.27904 -0.14722 0.18099 -0.0061461 -0.037502 -0.090821 0.064587 -0.22092 0.14264 -0.22549 -0.16899 0.16991 -0.086402 0.016218 -0.2956 -0.11605 -0.016442 0.088507 -0.19793 -0.3357 0.11774 -0.0073782 0.14667 -0.10763 0.073478 -0.032324 0.13406 -0.040505 -0.20771 0.13647 0.022402 -0.021148 0.075903 0.087992 0.17274 -0.099416 0.007628 -0.22008 -0.38663 0.14613 -0.06636 -0.10283 0.060979 -0.0081881 0.090652 0.12161 0.0080813 0.16115 -0.037554 -0.19839 -0.023453 0.019355 0.10313 -0.27301 -0.11803 0.10651 -0.27517 -0.33688 0.15206 0.069261 0.015846 -0.046914 0.09101 0.10917 0.154 -0.057135 0.094464 -0.15768 -0.014924 0.19868 0.22638 -0.14272 -0.027566 0.11808 0.25014 -0.057205 -0.31512 0.011467 0.068117 0.014897 -0.20899 -0.23235 0.15826 0.14582 -0.21845 0.032235 -0.18048 -0.12189 0.23939 -0.10422 0.014398 -0.021887 0.0032927 0.21176 -0.11364 0.19581 0.12815 0.06678 0.0098205 0.41892 -0.021768 -0.10245 0.10293 0.049406 -0.044722 0.1093 -0.058178 0.17412 0.058859 0.026803 0.13184 -0.18838 -0.30148 -0.24739 -0.17961 0.015958 0.23532 -0.076886 -0.028608 -0.021626 0.24466 0.017371 -0.23712 0.33801 -0.11379 -0.12724 -0.1525 -0.013823 0.08251 -0.30146 0.29042 0.061814 -0.30487 0.11885 -0.15881 0.010827 0.30241 0.07997 0.072263 0.22572 0.13312 -0.090835 0.0018121 0.0085008 -0.093541 -0.26176 0.084472 0.22712 -0.13496 -0.080872 0.21129 -0.19083 0.062644 -0.15754 0.15734 0.19736 -0.036059 -0.43814 -0.099021 -0.046752 -0.20414 -0.024862 -0.034409
su -0.054517 -0.022973 -0.078011 -0.059316 0.02299 0.072525 0.044463 0.015343 -0.018025 -0.048192 0.16916 0.12657 0.19921 -0.082743 -0.038897 0.17615 -0.1868 0.05593 -0.097222 0.11662 -0.030965 -0.08163 0.03163 -0.024038 0.13045 0.093133 0.046999 0.088671 0.063166 -0.13847 -0.21773 0.072227 -0.088479 -0.2493 -0.033983 -0.030743 0.097593 -0.053368 -0.036891 0.1388 0.20446 0.19039 0.096379 -0.30386 -0.020675 -0.16252 0.24512 0.022322 -0.10416 0.17603 0.00019187 0.15939 0.03061 -0.13922 0.038593 0.079251 -0.031823 -0.015699 0.29278 -0.27661 -0.17271 0.17865 0.035927 0.0015589 0.18079 -0.3389 0.027068 -0.042152 -0.022099 -0.12288 -0.033126 -0.066838 -0.048474 0.11064 -0.1845 0.024356 -0.12455 -0.15449 0.16432 0.051197 0.08691 0.30748 0.11399 -0.053547 0.23382 0.028261 0.052041 0.21344 0.014891 -0.012328 0.38278 0.092059 0.23691 -0.021475 0.063275 -0.21088 -0.30615 -0.1157 0.04897 0.010924 0.017793 -0.0347 -0.11377 0.16275 -0.19588 0.06468 0.075079 0.075432 -0.02208 0.027595 0.13905 0.049815 0.13275 0.0039966 -0.034402 0.17743 -0.053538 0.14609 -0.13933 0.078905 -0.12326 0.1902 0.063585 -0.074625 -0.46491 -0.15302 0.074404 -0.074181 0.23662 0.0093199 -0.1251 -0.20318 0.15558 0.13469 -0.10016 0.099589 -0.016737 -0.023971 0.10262 0.12885 -0.098407 -0.049428 0.16868 -0.046283 0.058861 0.072746 0.012771 -0.072094 0.084591 0.078615 0.20273 -0.035923 0.13677 -0.0040937 -0.11733 -0.23447 0.035973 0.013017 0.07329 0.11443 0.066808 0.26104 0.027118 -0.017877 0.087837 0.12706 -0.069424 -0.11883 -0.16962 -0.15701 0.35021 0.30645 -0.14949 -0.18228 -0.099594 -0.37944 0.086405 -0.049946 -0.056782 0.35612 0.056965 -0.17598 0.076638 -0.035441 -0.045035 0.026941 -0.08388 0.064569 0.062705 0.32146 -0.012133 -0.093972 -0.0857 -0.17613 -0.19674 0.018631 0.047057 0.027347 -0.16123 0.31593 -0.10665 -0.022221 -0.047923 0.039754 0.11236 0.024043 0.19372 -0.040319 0.028104 0.025271 -0.0059662 0.10607 -0.030738 0.014261 0.059104 -0.084829 0.11993 -0.16759 -0.10326 -0.03218 -0.18389 -0.016536 -0.01999 -0.037733 -0.14484 0.056426 -0.19437 0.13111 -0.20314 0.15098 -0.017782 -0.22702 0.030874 -0.022781 -0.096171 0.063237 0.17986 0.20936 -0.25713 0.068414 -0.045595 -0.011924 0.18251 -0.076394 0.18114 -0.25988 0.049103 -0.046377 0.10099 -0.14411 -0.065553 -0.043118 -0.14404 -0.020598 -0.23843 -0.10469 -0.1333 -0.1232 0.10298 -0.14627 0.20154 0.025353 0.1873 -0.15702 -0.0045475 0.26229 -0.19104 0.26846 -0.1402 -0.33851 0.19011 -0.10475 0.22414 0.19458 -0.1357 0.0396 0.17987 0.20315 -0.090066 -0.033747 0.18444 -0.056666 -0.15335 -0.03921 0.16189 -0.081238 0.066866 0.093909 0.073196 -0.13164 -0.13207 -0.12127 0.12769 -0.14573 -0.20315 -0.15272 -0.09037 -0.026246 0.24686 -0.05208
es 0.014497 -0.106 -0.015242 -0.04655 0.15068 -0.19912 -0.027814 0.30646 0.36384 0.02898 0.11997 -0.025324 -0.1958 -0.079352 0.18232 0.048494 0.23905 0.036817 -0.11547 -0.018139 0.0025621 -0.020493 -0.09254 -0.015895 0.12944 0.141 0.22575 0.0080693 -0.12838 -0.16252 -0.071725 0.43219 -0.055431 -0.21869 -0.0027751 -0.013589 -0.29377 0.12503 0.062532 0.13085 0.24639 0.15088 0.32215 -0.10196 0.20068 0.0034951 0.0466 0.062291 -0.084817 0.13021 0.03226 0.14052 -0.17137 -0.17246 -0.029059 -0.16135 -0.17277 -0.088813 0.12134 0.024337 0.024709 0.30679 0.10347 0.19039 0.12589 -0.39368 0.10215 0.13476 -0.09952 0.26692 0.22245 -0.061575 -0.11451 -0.034785 -0.13564 -0.15629 0.086883 0.05423 0.085532 0.12486 0.12174 0.089885 -0.026922 -0.17345 0.058443 0.30768 0.00064415 0.089206 -0.0039035 0.091007 0.36338 0.44879 -0.056032 0.39701 -0.11128 -0.081042 -0.42575 -0.16304 0.19891 -0.18606 0.12719 -0.072418 -0.013434 -0.16553 -0.083508 0.040843 0.14066 -0.23252 -0.047367 0.056745 0.20791 -0.14089 -0.32906 0.18986 -0.19591 0.29003 0.13256 0.068411 -0.44771 -0.14688 0.13751 0.10647 0.10634 -0.066731 0.04229 -0.23298 -0.16244 0.28969 -0.18753 -0.1815 -0.031844 -0.034727 -0.37742 -0.10498 -0.044817 0.095377 0.021111 -0.0062177 0.12512 0.06627 -0.048176 0.11849 -0.079357 0.089971 -0.22079 0.26501 0.01627 -0.15115 -0.096312 -0.076071 -0.034028 -0.19872 0.12823 0.082657 -0.044617 -0.26175 -0.16351 -0.10896 0.067684 0.016459 0.10339 -0.0074813 -0.20328 -0.069754 -0.097287 -0.3525 -0.03807 0.069894 -0.18619 0.00077902 0.22104 -0.0060191 0.18699 -0.054524 -0.12146 -0.22617 0.024534 -0.038624 0.0030923 0.20754 -0.029787 0.017602 -0.029883 -0.13406 0.12398 0.21342 0.022068 0.0029518 0.058299 0.24256 -0.11542 -0.089205 0.099421 -0.16976 -0.19159 -0.017362 -0.041067 -0.21724 -0.060377 0.098264 0.12389 -0.082205 0.02798 -0.16262 -0.11647 0.065044 0.17043 0.28841 -0.12984 -0.29073 -0.044365 0.038751 0.062179 -0.25372 0.14768 -0.19959 -0.12789 -0.12953 -0.028299 -0.11632 -0.15294 -0.10225 -0.14471 0.029321 0.07648 0.095213 -0.00066115 0.070369 0.17586 -0.13831 0.078591 -0.1309 0.35003 0.019568 0.069951 0.06773 0.23304 -0.15737 -0.13918 -0.092765 -0.053619 -0.16367 0.4551 0.067617 0.28727 0.038327 0.31563 -0.29221 0.023772 -0.10624 -0.1452 -0.081894 -0.0052382 0.15628 -0.15976 0.046898 0.11455 0.1035 -0.10907 -0.1225 0.033675 -0.09378 0.13593 0.19276 0.10081 0.0043222 0.00063674 0.20353 0.084939 -0.050205 -0.12604 -0.10974 0.084158 0.19099 0.17052 -0.069284 -0.10196 -0.040925 -0.14464 0.056135 -0.11908 0.036487 -0.15026 -0.034787 0.20258 -0.24859 0.1944 0.007916 -0.2877 -0.048483 0.046945 -0.16941 0.45932 0.1739 -0.58827 -0.14131 -0.12296 -0.068479 0.12817 0.030751
categora -0.53457 -1.036 -0.23865 0.074292 0.054877 0.087098 0.0299 -0.08336 -0.44097 0.13399 -0.13373 -0.2911 -0.40178 0.12319 0.02523 0.99971 0.71185 0.16509 0.48622 -0.062615 0.49802 -0.19621 0.017655 0.11138 0.28419 -0.19557 0.43566 -0.41722 -0.30526 -0.4738 0.12143 -0.071799 0.091673 -0.2732 -0.12317 0.69822 0.034956 0.30138 0.04557 0.11862 0.88194 0.09447 -0.27544 -0.23844 0.64247 0.05189 0.0028682 -0.33196 0.30209 0.10721 0.2217 0.66854 -0.13209 0.51887 -0.12853 0.022961 -0.052072 0.063778 0.078073 -0.15345 -0.35995 0.074041 0.13897 0.1079 0.60847 -0.37481 -0.11892 0.18396 0.0076974 0.70884 0.094006 -0.64037 -0.4059 -0.044861 -0.079888 -0.38795 -0.33059 -0.43225 0.83351 0.51068 0.098336 0.22664 0.20916 -0.57663 0.28942 -0.46576 -0.57783 0.29116 0.57496 -0.012066 -0.021987 -0.28441 -0.021989 0.091553 0.11741 -0.66151 -0.77927 0.086041 0.84429 0.34123 0.67699 -0.43762 -0.11076 -0.50421 -0.53799 0.46553 0.5018 -0.39694 0.13643 0.14309 0.15001 -0.14994 0.16491 0.16783 -0.127 0.61245 -0.063683 -0.65403 -0.25268 0.51538 0.013467 0.0058531 0.22449 -0.271 0.88585 0.42767 0.17883 0.11663 -0.042976 0.12119 0.88533 -0.090566 -0.56773 -0.31249 0.20402 -0.93014 0.16492 -0.73299 0.256 0.24341 0.47212 -0.11482 -0.48626 -0.24698 -0.31655 0.27578 0.27539 -0.40864 -0.64825 -0.41917 0.15183 0.1249 0.70601 -0.43383 -0.22425 0.36111 -0.538 -0.54922 -0.25107 -0.42536 -0.32686 0.30277 0.27848 -0.070802 0.091594 -0.64885 -0.10084 -0.54179 0.18832 0.12901 0.46737 0.13029 -0.0071092 0.13939 0.34307 -0.16158 -0.32165 0.14656 0.2145 0.024225 0.10702 0.034983 -0.089057 -0.016592 0.17101 -0.040688 -0.14602 -0.58292 0.89114 0.37966 -0.17634 -0.92504 0.048343 -0.17779 0.1982 0.36894 0.51914 -0.025328 -0.64615 0.17773 -0.34824 -0.17734 0.067124 -0.26132 -0.42613 -0.025322 -0.39127 -0.14837 -0.12313 -0.049854 -0.098883 -0.49896 0.39578 0.44721 -0.22311 0.20439 0.59677 0.41554 0.048571 0.11666 -0.42397 -0.1619 0.33814 -0.3891 0.40282 0.32512 -0.29436 0.26777 -0.20734 -0.35468 0.49594 0.32518 -0.022437 0.41378 -0.023692 0.0035146 -0.38828 -0.51054 -0.19495 -0.07615 -0.082317 -0.15655 0.33624 0.12195 0.042098 -0.38605 -0.29105 0.07759 -0.078316 -0.74309 -0.2139 -0.63492 -0.10764 -0.36116 -0.48309 -0.43988 -0.3349 -0.56235 -0.019576 0.52755 -0.24766 -0.61162 0.12673 -0.86672 -0.35877 -0.17633 -0.38491 0.87563 -0.89502 -0.034079 -0.09802 -0.36212 0.18119 0.41675 0.6171 0.77312 -0.12409 0.22009 0.27424 0.22535 -0.44797 0.054343 0.1289 -0.14836 -0.17613 -0.014331 0.19726 1.0625 0.20442 0.33606 -0.069058 0.19135 -0.40085 -1.0101 -1.233 0.42084 -0.020997 0.17784 -0.39764 0.08952
para -0.070309 -0.1319 0.0060774 -0.041719 -0.014744 -0.10464 -0.066979 0.033913 -0.22463 -0.30941 0.084262 -0.017249 0.010161 0.021395 -0.19114 0.15175 0.081863 0.088375 -0.29459 -0.059009 -0.085438 -0.10956 -0.06151 -0.075051 0.22415 -0.16012 0.040921 0.087246 -0.0026592 -0.11825 0.14582 0.081573 -0.0037578 0.05278 0.24679 0.066298 -0.054135 0.13319 -0.0084776 0.092097 0.32259 -0.051865 0.089887 0.036297 -0.065161 -0.24259 0.11532 -0.14845 -0.048025 0.17439 -0.1721 0.042996 -0.22396 0.1083 -0.022591 -0.13492 0.052564 0.035957 0.11912 0.11657 0.16613 -0.079145 0.13482 -0.0067296 -0.19244 -0.28446 0.17098 0.26207 0.027044 0.089628 -0.039993 -0.1869 -0.01301 -0.066793 -0.29578 0.13494 -0.007889 -0.15632 0.4977 0.16802 -0.17243 0.038172 0.26328 -0.17358 -0.15039 0.10562 -0.13396 0.31552 -0.049907 -0.022596 -0.067525 0.14093 -0.062116 0.19014 0.034907 0.015246 -0.24127 -0.18938 0.13539 -0.17714 -0.078354 -0.12461 -0.21487 -0.16574 -0.0093748 0.10626 0.25058 -0.23802 0.056861 -0.035163 -0.001295 0.25958 0.25538 -0.032926 -0.16273 0.12093 0.12636 -0.061587 -0.11185 -0.054827 0.012149 0.03131 0.097418 -0.26683 0.19045 -0.2679 0.25121 -0.00059704 0.19896 0.048989 0.084446 0.15157 0.15775 0.20785 -0.14357 0.079133 -0.056477 -0.10256 -0.007978 -0.030225 -0.035286 0.19008 0.080564 0.18505 0.19146 -0.20877 -0.21477 0.0033652 0.11895 0.057046 0.01482 0.061043 -0.0013075 -0.21365 -0.093285 -0.26291 -0.12048 0.053944 0.052215 0.023392 0.11565 -0.12668 0.13511 -0.016269 0.099958 -0.17182 -0.17835 -0.26625 -0.21073 -0.11092 0.34446 0.069489 0.10604 -0.051372 -0.065985 -0.48998 0.0094063 -0.044585 -0.082313 0.13286 -0.30893 -0.05121 0.21953 -0.073641 0.13764 0.077704 -0.14018 -0.1478 0.089983 0.13536 -0.12992 -0.026839 -0.10017 -0.075273 -0.20127 -0.19373 0.087629 -0.029227 0.18041 0.1053 -0.028226 -0.11805 0.14273 -0.085476 0.19991 -0.1515 0.089004 -0.17861 0.038213 -0.14957 0.17499 -0.045697 -0.082643 -0.0016792 -0.34301 -0.0024559 0.2085 -0.16866 0.029333 0.071985 -0.2006 -0.19539 -0.072737 -0.39101 -0.11149 0.19051 -0.28499 -0.078125 -0.18749 -0.081587 0.071533 -0.041238 0.20941 0.23452 0.011212 -0.023149 0.0042512 0.28297 -0.076814 -0.19762 -0.027849 0.18476 0.17832 -0.14642 0.053569 -0.16844 0.1134 -0.15678 -0.1296 -0.21722 -0.22087 0.051922 -0.055147 0.1481 -0.084434 0.17402 0.0040667 -0.13683 0.03851 0.030455 0.21073 0.17961 0.035694 0.068631 -0.020115 0.063391 -0.30357 0.045416 0.051846 -0.095044 -0.037991 0.13228 0.11823 0.19489 -0.055553 0.14929 0.09014 -0.0047796 -0.054566 -0.0093944 0.34996 -0.1196 0.027743 -0.055057 0.21118 0.19404 0.012547 0.082732 -0.19954 -0.13664 -0.037783 -0.14221 0.13823 0.0034319 -0.1907 0.034656 -0.274 -0.093169 0.15139 0.071736
como -0.087945 -0.2236 -0.05867 0.077507 0.25632 0.24694 0.020722 0.048188 -0.045013 -0.185 0.016287 -0.066011 -0.11519 0.18387 -0.096621 0.019928 0.13249 0.17821 -0.018788 0.21958 0.0074873 -0.078077 -0.061353 -0.18103 -0.07283 -0.11396 -0.040034 -0.15366 -0.042883 0.1396 -0.082211 0.12842 -0.19425 -0.022599 0.17174 -0.0064369 -0.22885 0.20578 -0.091936 0.13998 0.083828 -0.075301 0.17679 0.046775 -0.024338 -0.2561 0.14079 0.058515 -0.059362 0.15136 0.16565 0.085108 0.0044136 -0.015251 0.017498 -0.19089 -0.01652 -0.015327 0.078066 -0.071684 -0.2349 -0.33464 0.22944 0.067224 0.14051 -0.38302 -0.074168 0.13436 -0.052531 0.16819 -0.0092868 -0.22044 -0.041206 0.02951 -0.20551 -0.051621 0.039612 -0.22098 0.3715 0.083106 -0.17128 -0.16797 0.039391 -0.084328 0.021544 0.1084 0.029178 0.35334 0.090582 -0.11992 0.092185 0.25179 0.045295 0.2299 0.043981 -0.18728 -0.31555 -0.027687 0.26927 -0.080356 -0.042972 -0.022375 0.15312 -0.025544 -0.18695 0.11919 0.14059 -0.28416 -0.022525 -0.11475 0.040253 0.049365 -0.042428 0.014431 -0.18507 0.020733 -0.034101 -0.027093 0.018741 0.098485 -0.16317 0.18094 0.1619 0.094321 -0.096159 -0.13489 -0.031358 -0.021292 -0.078494 -0.024347 -0.017826 0.023524 -0.18082 0.22495 -0.00099314 0.07147 -0.040521 -0.0088737 0.12655 0.065789 -0.18721 0.23922 0.22054 -0.011968 0.19664 0.17737 -0.17582 -0.040811 0.1325 -0.085748 0.099177 -0.14771 0.2407 0.0063279 -0.077167 -0.19186 0.16846 0.12535 0.21151 0.073541 0.08058 0.0045337 0.035521 0.075761 0.10983 -0.035144 -0.23648 -0.19175 -0.24911 -0.1069 -0.03764 -0.060138 0.010097 -0.10305 -0.0073812 -0.22967 -0.13687 0.039192 0.063755 0.23492 -0.18498 -0.20164 -0.047801 -0.13788 -0.05354 0.055851 -0.010515 0.21244 0.038181 0.13726 0.033747 0.041299 0.082112 0.014645 -0.24767 0.02292 -0.053363 -0.084332 0.066368 0.26475 -0.048603 0.079165 0.11477 -0.10583 -0.082377 -0.17199 -0.049657 0.13303 -0.0032522 -0.18502 0.010154 -0.14459 -0.046573 -0.1486 -0.12056 -0.28931 0.10177 -0.018171 0.13565 -0.012312 0.056571 0.042449 -0.0017602 0.058766 0.075478 -0.121 0.043523 0.096223 -0.1201 -0.022576 0.14143 -0.048135 -0.0068284 0.16333 0.10142 0.27022 0.065672 0.1467 -0.16841 -0.0772 0.0033025 0.040277 0.088095 -0.015845 0.044273 -0.19291 0.086079 -0.037578 -0.044039 -0.068313 -0.24943 0.031975 -0.10917 0.048525 -0.16581 0.16616 0.049226 -0.11709 -0.031798 0.063397 -0.018244 -0.067998 0.15629 0.10896 0.10448 -0.0017082 -0.043191 0.02989 0.10605 -0.16332 0.073421 0.11728 0.1697 0.22377 -0.081612 -0.10838 0.31049 0.090217 0.075605 0.06245 0.11647 0.21123 -0.11708 -0.13529 0.092646 -0.20223 0.046672 0.2292 -0.18277 0.082376 -0.24613 -0.012352 -0.0070721 -0.0013005 -0.47161 0.093311 -0.082273 -0.028274 -0.11696 -0.2146
al 0.023406 -0.11044 -0.17819 0.021879 0.28264 0.01958 -0.011444 -0.02406 0.12369 -0.31152 0.19772 -0.10862 -0.029759 0.018601 -0.19194 0.054583 -0.017392 -0.13785 0.024934 0.052723 -0.011063 0.1394 0.097562 -0.19742 0.023664 -0.16888 -0.023775 0.074246 -0.11249 -0.17201 0.33774 -0.10477 -0.098037 -0.077624 0.17646 -0.0037805 0.014132 -0.13048 -0.18123 0.14925 0.19804 0.067791 0.097604 -0.42651 -0.15543 0.037301 0.11661 -0.16934 0.15666 -0.086855 -0.28078 0.10337 0.054254 0.13233 -0.16237 0.024429 -0.011654 -0.072088 0.41158 -0.25216 -0.26998 0.23211 -0.015077 -0.27059 0.22767 -0.01092 0.14626 -0.072048 0.077299 -0.1326 0.037996 -0.084311 -0.32554 -0.0061726 -0.11831 -0.013074 0.0073599 -0.14358 0.24588 -0.023235 0.089504 -0.069001 0.23196 -0.12094 0.081592 0.022826 -0.038744 0.050703 0.12608 -0.049872 0.37241 0.32249 0.23059 -0.0061554 -0.070702 0.16131 -0.45116 -0.003466 -0.29986 -0.045248 -0.030891 0.020528 0.15861 0.12292 -0.22485 0.27244 0.045091 -0.18984 0.20477 0.12533 0.13624 0.092275 0.12623 0.029374 -0.075312 0.26298 -0.10267 0.15132 0.13575 -0.080856 -0.23259 -0.10677 0.10106 -0.17958 0.0085324 -0.10992 0.09148 -0.034202 0.12826 0.0069412 0.10944 -0.10668 -0.021392 0.025169 -0.22617 -0.072478 0.14011 -0.27698 0.22059 0.072589 -0.21468 -0.017532 -0.042668 0.39122 -0.031391 -0.21557 0.082217 -0.24878 0.25556 0.082298 -0.11238 0.3931 0.075 0.24999 -0.16023 -0.072743 -0.090091 -0.082295 -0.13654 -0.08421 0.12649 -0.10304 -0.165 -0.0262 -0.092018 0.044245 0.1878 0.0066784 -0.20634 -0.14508 0.4644 0.1412 0.28745 0.019101 -0.3946 -0.0054008 0.044398 -0.13759 0.014677 0.2761 0.17753 0.021661 -0.059861 -0.16248 0.048361 0.13771 -0.12684 -0.13547 0.1036 -0.014428 0.20566 -0.16838 -0.07201 0.0028657 -0.14911 -0.15347 0.068263 0.074718 0.032042 0.045398 -0.078713 -0.019768 0.14588 0.41553 -0.072184 -0.11652 -0.016648 0.32083 0.11431 0.037878 -0.23117 0.017517 0.099627 0.10861 -0.10054 -0.15427 0.13789 0.050178 0.079894 -0.13832 -0.27291 -0.36058 0.080934 -0.15573 -0.12913 0.30812 -0.24814 0.04958 0.11908 0.082273 -0.0099525 0.049847 0.14971 0.27243 0.23795 0.1981 0.16782 0.028139 -0.11051 -0.15528 -0.036033 -0.064562 0.14693 -0.15656 0.27382 -0.31401 -0.0093921 0.094562 -0.063394 -0.17604 -0.11294 -0.13307 -0.0562 0.058698 0.03062 0.091326 -0.2029 -0.2199 -0.056022 -0.10874 0.078541 0.073869 0.15013 0.11536 -0.0091528 0.10887 0.068409 0.14166 -0.064594 -0.17004 -0.10043 0.25977 0.24517 0.21234 0.14698 0.11877 0.28919 0.20021 -0.0070888 -0.17157 0.10346 0.0012624 -0.16266 -0.058977 0.15054 -0.079167 0.3124 0.064519 0.078326 -0.0048209 0.078826 -0.20685 -0.10615 0.28764 -0.32756 -0.13973 -0.093244 0.094624 -0.11531 -0.020057
rd -0.64343 -0.53842 0.29163 -0.77554 1.0908 -0.10357 -0.21288 0.32775 0.24958 0.62957 0.60731 0.088115 0.025978 0.1554 -0.42119 -0.53507 0.37182 0.75868 -0.23943 -0.2289 -0.015908 -0.095629 -0.12998 -0.55215 -0.75672 -0.76382 -0.036551 -0.1404 -0.77691 0.086377 0.016289 0.042345 0.29632 -0.53584 -0.15557 0.082322 -0.42748 -0.37075 -0.05219 0.6336 -0.24672 0.64876 0.65398 0.48272 -0.18182 -0.64204 -1.0805 0.19391 0.23645 -0.20055 -0.30373 0.73336 -0.19249 -0.33436 -0.1837 -0.5956 -0.53485 0.41094 0.60454 -0.46209 -0.061677 -0.8304 1.0556 0.11981 -0.85741 0.51701 0.49806 0.5036 -0.15422 0.31667 -0.53434 0.86407 -0.22356 -0.044473 -0.82771 0.089948 -0.51549 -0.61218 1.6721 0.79206 0.14445 0.67693 -0.070705 -0.13118 1.0697 -0.54712 -0.25247 0.10611 -0.43031 0.50421 0.98206 -0.97154 -0.2923 -1.0415 -0.62214 -0.6123 0.10368 1.0874 -0.3814 -0.84644 0.7662 -0.47324 -0.32953 -0.11238 -0.69183 -0.68944 0.086276 0.011479 -0.13851 0.43383 0.24427 0.11798 -1.1254 -0.087801 -1.2529 0.089298 0.23302 -0.62829 -0.12466 -0.15648 -0.014927 0.17506 -0.13036 0.89744 -0.21132 -0.045475 -0.7137 0.011229 -0.34378 0.18834 0.78631 0.3077 0.52949 -0.097087 -0.19458 -0.040978 -0.21922 -1.372 0.5173 0.38261 -0.19697 0.1996 -0.047388 -0.38189 -0.14809 -0.051303 0.68115 -0.63382 -0.85072 -0.48658 -0.20666 -0.28505 -0.36432 -0.21042 -0.32946 0.10124 -1.2747 -0.54976 0.33574 -0.64758 0.57762 0.018498 0.31455 0.16038 1.0749 0.1665 0.58523 -0.75705 -0.29584 -0.004072 -0.13182 -0.051713 -0.82783 -0.0075547 0.7487 -0.16378 -0.43534 0.61255 -0.27559 -0.21073 -0.012819 0.040063 0.55757 -0.050091 0.22923 0.77077 -0.45911 0.18264 0.054811 -0.28138 -0.78075 -0.62183 0.63336 -0.42677 -0.25753 -0.2827 0.050957 -0.15399 -0.15582 -0.27886 -1.1556 -0.21184 0.38293 0.38403 0.12236 0.25643 -0.62559 -0.80977 0.30691 -0.049047 -0.37837 -0.061272 -0.36047 -0.041795 -0.51068 -0.23079 -0.52773 -0.21963 0.15631 -0.50783 -0.64977 0.021803 0.43341 0.043814 0.13781 0.38271 -0.19709 0.37942 -0.50339 -0.054506 -0.3569 -0.28979 0.34399 -0.21849 0.068353 0.24667 0.87647 0.56506 -0.75714 -0.46787 -0.61276 -0.043582 0.46447 0.83697 -0.50279 -0.41049 -0.56987 0.11354 0.58116 -0.86324 -0.91345 -0.54014 -0.23513 0.27816 -0.077726 -0.25643 0.047284 -0.4514 -0.98573 -0.23775 0.043641 0.24583 0.15592 -0.18893 -0.6451 0.14044 -0.5605 -0.56962 0.22358 0.33775 0.075834 0.56776 0.34655 1.6111 -0.085101 0.73934 0.79859 -0.25291 -0.071117 0.76314 0.15835 0.084616 -0.059971 -0.082652 -0.080728 0.27701 0.33236 0.88601 0.44025 -0.62851 0.2033 -0.21956 0.047124 -0.46978 -0.8949 -1.0528 0.052835 -0.070862 -0.014414 -0.048568
fue -0.12037 0.054871 -0.17538 -0.25457 0.064344 -0.23652 0.035934 0.084449 -0.017699 0.18382 0.14148 -0.083782 -0.10072 -0.0010211 0.17424 -0.23252 0.12994 -0.056476 -0.033696 0.089386 -0.13828 0.14689 -0.2143 0.044166 0.028106 0.21822 0.16563 -0.038603 -0.040257 0.050697 0.080142 0.25725 -0.064667 -0.40494 0.042057 0.14144 -0.10395 0.17998 -0.11322 0.39851 0.40625 0.0022636 0.13317 -0.096199 0.26226 -0.015264 0.20809 -0.1291 0.02432 0.054262 0.27199 0.13936 0.16462 -0.17376 0.10969 0.057429 -0.10334 -0.012937 0.18317 -0.033869 -0.040766 0.0090976 0.040094 -0.014666 0.2045 -0.43531 0.22518 0.1276 0.15623 0.0086955 -0.096693 -0.02657 -0.012347 0.24976 -0.0030313 -0.12336 -0.01345 -0.0053405 0.048882 -0.02674 0.088663 -0.062846 0.25404 -0.12334 0.19499 0.022931 0.06016 0.21614 0.0028533 0.045139 0.17331 0.046918 -0.058939 0.33121 -0.20047 -0.1975 -0.61811 -0.15891 0.25827 -0.50993 -0.035579 -0.27286 0.074187 0.090525 -0.17562 0.082259 0.070402 -0.28911 -0.017821 -0.056364 0.18833 0.010515 -0.23831 -0.0042726 -0.071198 0.15605 0.11765 0.047828 -0.051832 0.075193 -0.085363 0.14532 0.15172 0.067604 -0.11658 -0.1596 -0.3382 0.11796 0.022109 -0.13635 0.007907 -0.14115 0.029028 0.040749 0.0088179 0.10556 0.021547 0.01688 0.29959 0.076233 0.24383 0.043433 0.094412 0.031095 0.12205 0.079182 -0.21272 0.10302 -0.10101 -0.057564 0.042242 -0.19493 0.12324 0.21021 0.021665 -0.11072 -0.060833 -0.22347 -0.14433 0.25865 0.11978 0.0090378 -0.12351 -0.19815 0.19521 -0.19183 -0.31152 -0.32812 -0.14774 -0.15178 0.29683 0.22036 0.18985 -0.10149 -0.50195 -0.23272 -0.26733 0.27695 -0.088839 0.20335 -0.15504 -0.095443 -0.012217 0.027382 0.11917 0.23252 -0.43141 0.080338 -0.17642 -0.03065 0.013956 -0.010788 0.31728 -0.16058 -0.01867 0.012967 -0.064804 0.059987 0.054628 0.043724 0.1198 -0.14272 -0.053733 0.19806 -0.1492 0.19602 -0.095998 -0.01798 -0.19768 -0.306 0.10622 -0.026532 0.007316 0.047817 0.40417 -0.14441 0.06134 -0.32456 -0.22942 -0.21875 -0.046896 0.0093395 -0.17589 0.032534 -0.18698 0.076045 -0.16486 0.059035 -0.056168 -0.17907 -0.09224 -0.011925 0.46763 -0.0017635 0.23681 -0.0395 -0.11969 -0.037922 -0.1616 -0.38531 -0.10824 -0.10443 0.045705 -0.13091 0.17118 -0.017143 0.1099 -0.042109 0.19349 -0.13547 -0.053102 -0.16709 -0.0029164 0.22588 -0.40517 -0.18393 0.0023032 0.072714 0.16094 0.0096481 -0.016411 -0.025309 0.10411 0.15011 0.090627 -0.025226 0.031346 -0.006958 -0.22004 -0.056156 -0.020486 0.097859 0.051136 0.16986 0.0092796 -0.1068 0.16297 -0.14211 0.13754 0.069139 0.035601 0.16266 -0.062702 0.17918 0.072519 0.19687 -0.15152 -0.055914 -0.19037 -0.029964 -0.078063 -0.26569 0.054341 0.041166 -0.78031 -0.1343 -0.43313 -0.14842 -0.16355 0.029101
no -0.22842 -0.25825 0.12172 -0.0058728 -0.1106 0.0563 -0.036716 0.27465 0.049974 -0.25462 -0.076203 0.037675 0.13904 -0.023227 -0.39036 0.2057 0.114 0.064513 -0.27738 -0.15053 0.0052006 -0.23579 -0.0017684 -0.24684 0.098224 -0.15666 -0.14327 -0.11306 -0.12081 0.26268 -0.10594 -0.0035062 -0.15994 -0.12207 0.22028 0.029779 -0.18235 0.057562 -0.25255 0.084554 0.14936 -0.20485 0.088538 -0.074591 0.20552 -0.15348 0.031839 -0.07596 0.014546 0.11597 -0.2177 -0.029562 -0.19933 -0.34885 -0.15689 -0.18079 0.027551 -0.078086 0.034992 0.046714 -0.050826 -0.061677 0.1389 -0.14267 0.35817 -0.24138 -0.099477 -0.089022 -0.011748 -0.25623 -0.1702 -0.12126 0.082703 0.12427 0.016251 0.15507 0.17842 -0.057647 0.28592 0.20836 0.053188 -0.21547 0.15545 -0.22141 0.043754 -0.10184 0.10948 -0.046093 0.026643 -0.20529 0.044001 0.33463 0.3148 -0.0003114 0.20684 0.068512 -0.15193 -0.002788 0.083097 0.10597 0.13083 0.14899 -0.0073652 -0.0062553 0.024245 0.049102 0.50186 0.013446 -0.15655 0.033189 0.061587 0.073833 -0.039045 -0.14817 -0.22614 0.079919 0.041179 0.07231 -0.20151 -0.084984 0.1369 -0.04825 0.1011 -0.25174 -0.16676 -0.29548 -0.048002 0.1304 -0.25763 -0.046952 -0.054499 -0.028256 0.1736 0.055681 -0.16227 0.099414 0.20236 -0.018705 -0.024143 -0.097963 -0.059358 0.055321 -0.061984 0.25756 -0.10914 -0.20325 0.21272 0.22525 0.10643 0.19235 -0.012227 0.18331 0.21675 -0.036163 -0.21669 -0.2324 -0.17039 -0.18241 0.19983 -0.014916 0.049545 -0.042424 0.24399 0.12546 0.18012 -0.20742 -0.052904 -0.1338 -0.081247 0.017679 0.16442 0.082877 -0.12439 -0.11991 -0.1296 -0.23437 0.088427 -0.28403 0.090151 -0.12997 -0.11245 -0.13268 0.010712 -0.11752 0.11785 -0.010192 0.10355 0.27111 0.0042141 0.15951 0.088793 0.10242 0.30753 -0.20722 -0.067275 0.086939 -0.023591 -0.22437 0.16486 0.26897 0.1579 0.0053195 0.073466 -0.10494 0.15523 -0.16203 -0.080929 0.11793 -0.12152 0.045217 0.080231 -0.012731 -0.017011 -0.056008 -0.2178 -0.043456 0.065121 0.088593 -0.029802 -0.090963 -0.18899 0.00073224 0.094782 -0.53825 0.1947 0.17159 -0.10667 -0.042746 -0.1462 -0.19792 0.15653 -0.11325 0.11177 0.11462 0.14626 0.077522 0.16068 0.11478 -0.1082 -0.071063 -0.12063 -0.10124 0.22566 -0.026155 0.16012 -0.13486 0.0015525 0.053209 -0.062583 0.073122 0.15114 0.064927 -0.057682 0.17681 -0.058086 0.035499 0.16844 -0.10104 -0.10635 0.046374 0.077977 0.081762 -0.043694 0.11337 0.075238 0.16225 -0.027582 0.058193 0.052854 -0.18124 -0.081646 0.11391 0.086137 0.10249 -0.040655 -0.065541 0.23803 0.16196 0.18509 0.033431 -0.19417 0.00874 -0.069193 -0.2478 -0.031591 -0.011147 0.032175 0.30856 0.017062 -0.035977 -0.045459 -0.15492 0.098818 0.071853 -0.4275 -0.11039 -0.18988 0.027881 0.091073 -0.16414
ms -0.030563 0.016793 -0.024451 0.042126 0.084903 0.31681 -0.21805 0.19907 0.11525 -0.14437 -0.24505 -0.085708 -0.049607 -0.054406 0.1691 0.037826 0.23161 -0.13655 -0.18912 0.13589 -0.044122 -0.18079 -0.22827 -0.34854 0.087626 0.11205 0.08793 -0.072125 0.06476 -0.025963 -0.14892 0.097094 0.050826 -0.16296 -0.2386 0.17819 -0.38357 0.12301 -0.055053 0.13866 0.27122 0.081221 -0.049409 -0.060541 0.12906 -0.045648 -0.012116 -0.33043 -0.18528 -0.049233 -0.034827 0.014087 -0.024204 -0.12232 0.16446 -0.13324 0.10325 0.049787 0.29405 -0.16654 -0.004513 0.0016856 0.13088 -0.13404 0.10111 -0.018112 -0.3128 -0.17679 -0.23937 0.098815 -0.086048 -0.088934 -0.12494 -0.042411 -0.033489 0.14866 -0.072986 -0.14068 0.36402 0.02849 -0.017452 0.055681 0.39892 -0.1187 -0.062863 -0.16937 -0.031952 0.084997 0.34448 0.022437 0.014371 0.2817 0.19558 -0.11993 -0.16345 -0.056511 -0.30041 -0.16988 0.1835 -0.2857 -0.07319 -0.081398 0.095184 -0.19776 0.1506 0.12411 0.013049 -0.1052 -0.22113 -0.14001 0.14774 -0.0083085 0.0017432 0.077216 -0.070932 0.082274 0.18777 0.19845 -0.14429 -0.026826 0.0058478 0.0075403 0.24701 -0.015239 -0.24503 -0.26575 0.033348 -0.088159 -0.16467 -0.075498 0.0024565 -0.035654 -0.1775 0.18502 -0.21284 -0.06446 -0.027372 0.19148 -0.0094232 0.19947 -0.10201 0.28196 0.069833 0.1442 0.025944 0.23665 -0.14193 0.054901 0.29142 0.043789 -0.12622 -0.017688 0.29882 -0.29867 0.077755 -0.12916 -0.18131 0.025206 0.11525 -0.19761 -0.26986 0.2547 0.020175 0.060213 0.18454 -0.56074 -0.046333 0.030413 -0.26496 0.12035 0.1799 0.14634 -0.026481 -0.0035021 -0.15245 -0.32445 0.17997 -0.17069 -0.16139 0.29823 -0.50598 0.13021 0.11857 -0.035249 0.21525 0.13113 -0.19611 0.01378 -0.010712 0.213 0.14545 -0.056819 0.076101 -0.098807 0.0019623 -0.042252 0.079089 -0.24471 -0.020703 -0.0021576 -0.085137 0.088281 0.25594 0.22567 0.051448 -0.10755 -0.08124 0.10166 0.09847 0.14425 -0.13302 0.04366 -0.051844 -0.068707 -0.21222 -0.12129 -0.085058 -0.22323 0.14779 0.088683 -0.078489 -0.017359 0.19008 0.089532 -0.013703 0.2331 -0.15563 0.12919 -0.056685 -0.15045 0.077142 -0.12896 0.039016 -0.024458 -0.20761 -0.11519 0.22026 0.15397 -0.2272 -0.24947 0.23307 -0.026124 0.14035 0.0034175 0.2876 -0.23866 0.063022 -0.032577 0.016463 -0.13545 -0.18997 -0.16071 -0.079954 0.13314 -0.13588 0.091109 -0.030569 -0.112 0.039943 -0.043887 0.18273 0.068979 -0.06133 -0.051772 0.10108 0.11611 0.072599 0.25257 0.14163 -0.25127 -0.065203 0.00068394 -0.13676 0.0039331 0.13341 -0.035888 0.32889 -0.02493 0.15294 -0.064412 0.013451 -0.015107 -0.27263 -0.04885 0.019021 -0.085161 0.30341 -0.075135 -0.031495 -0.047669 -0.031935 0.022018 -0.021969 -0.045498 -0.34101 -0.023083 0.048215 -0.087826 0.028111 -0.12227
o -0.15007 -0.070059 -0.11416 -0.070598 0.073026 0.21797 -0.012866 0.13063 -0.12125 -0.2787 0.033754 0.050824 0.28784 0.063904 -0.18186 0.06259 0.081811 0.071499 0.044124 0.14538 -0.10694 -0.20775 -0.10134 -0.30509 0.10835 0.23166 0.013189 -0.45621 -0.14171 0.066549 0.055807 0.26081 -0.062146 -0.18114 0.21023 0.017835 -0.30297 0.15727 -0.034378 0.12808 -0.05766 0.010139 0.060261 -0.074076 0.19599 -0.21603 0.0013981 -0.030787 -0.10892 -0.021255 -0.031522 0.16538 -0.17259 0.17241 0.12373 -0.042548 0.22423 0.13084 0.29041 -0.091443 -0.013214 -0.057404 0.15164 0.18632 0.18274 -0.063506 0.21044 -0.01552 -0.27654 0.06588 0.11335 -0.15899 -0.17834 -0.1516 -0.26628 -0.07337 0.0068544 -0.20112 0.26079 0.058729 -0.36755 0.014416 0.16251 -0.049605 -0.1318 -0.057075 0.03304 0.30911 0.11082 -0.049733 0.13443 0.050648 0.16499 0.017693 -0.060323 0.23937 0.013029 0.16439 0.13544 -0.12313 0.059845 0.046928 0.18701 -0.1435 0.027589 0.034077 0.36938 -0.05844 -0.095985 -0.2824 0.13619 -0.051833 0.12766 0.096993 -0.3681 0.13529 0.021302 0.031156 -0.21558 -0.25038 0.028398 0.32051 0.062692 -0.085141 -0.041748 -0.0085329 0.05745 0.050102 -0.13082 0.08907 -0.094117 0.13906 -0.17743 0.081555 0.037969 -0.065759 -0.025684 -0.034213 0.086731 0.088154 -0.0421 0.25695 -0.055844 0.062163 -0.1203 -0.057149 0.056994 -0.17603 0.23923 0.12918 0.060032 0.055538 0.19385 0.030447 -0.067762 -0.37323 -0.18758 -0.21232 0.13173 -0.24094 -0.20126 0.097407 -0.14587 0.1722 -0.15405 -0.1392 0.00089382 -0.12708 -0.11645 0.063582 0.14084 0.021257 0.017292 -0.2199 0.13857 -0.037639 -0.20706 -0.40766 0.011924 -0.07946 -0.033415 -0.11731 0.085301 -0.041904 0.22424 -0.090163 0.050331 0.11838 -0.016609 0.016186 -0.0010357 0.095266 0.041919 -0.4182 -0.17636 -0.069233 -0.052937 -0.41255 0.03004 0.025662 0.057962 -0.04254 0.1 -0.11294 0.0045579 0.039547 -0.038818 0.18392 0.082327 -0.12608 0.0055679 -0.15363 0.082926 -0.23355 -0.21068 -0.12155 -0.10007 0.16092 -0.015482 -0.036862 -0.17318 -0.085306 0.13674 0.14489 -0.047605 -0.0063533 -0.11525 0.14012 0.11285 -0.19862 0.18961 -0.097396 0.053828 -0.021998 0.20022 -0.30007 0.20164 0.026975 -0.1331 -0.21985 -0.24197 -0.10437 0.06869 0.1561 -0.18045 0.022872 0.064363 -0.11579 0.12293 -0.22386 -0.055383 -0.11085 0.13754 -0.064814 0.07189 0.41287 -0.21488 0.039869 -0.17033 -0.0040175 -0.024433 0.1659 0.056396 -0.032339 -0.089475 -0.25082 -0.061976 0.32363 0.17264 -0.20904 -0.0022831 0.14087 -0.038459 0.096373 0.10486 0.3016 0.36648 0.26728 0.15959 0.0045427 -0.066809 -0.0040691 -0.11844 -0.22603 0.17235 -0.072664 0.19709 -0.2178 -0.068 0.03607 -0.00061581 -0.19511 -0.010932 -0.024884 -0.36862 0.024935 -0.038909 -0.19108 -0.061416 -0.1826
score -1.086 -0.71412 -0.43459 -1.0962 0.5817 0.00034483 -1.1237 -0.0042818 -0.27747 0.079997 0.47801 0.14528 0.015643 -0.12779 0.76617 -0.22546 0.59833 0.4786 -0.050944 -0.19922 -0.023582 0.26135 0.27565 0.034312 0.31487 -0.60761 0.59435 -0.20906 -0.72394 -0.15393 -0.020386 0.34223 -0.56202 0.059895 0.14767 -0.15323 -0.15052 0.35184 -0.70514 0.85412 0.44884 0.54606 0.90864 -0.17793 0.14772 -0.30764 -0.22559 -0.029232 0.56407 -0.1569 -1.0006 0.76242 -0.53903 0.13581 0.42981 -0.21083 -0.30987 0.89411 0.17252 -0.056499 -0.0044059 -0.74551 0.040543 0.48962 -0.46807 0.53443 1.6529 0.10267 0.017856 0.48147 -1.3314 0.129 0.39946 0.16084 -0.7081 0.27524 -0.26326 -0.592 0.611 1.5208 0.477 0.42542 0.74884 -0.48105 0.73455 -1.278 -0.086635 0.42535 -0.48036 0.67183 0.62147 -0.61347 -0.96699 -0.039984 -0.32736 0.47064 -0.47681 1.2784 0.29574 -0.027758 -0.40775 -0.43517 -0.40802 0.24915 -1.2016 -1.0937 0.29215 0.018416 -0.065951 0.77962 0.018158 -0.019635 -1.2811 0.1091 -1.8264 -0.06696 0.57724 0.58088 0.1187 -0.28797 0.5903 -1.1364 0.3434 0.79014 0.68503 0.68314 0.08071 -0.79437 -0.19188 -0.22282 0.12693 -0.41914 0.40453 0.13575 -1.083 -0.037208 -0.53754 -1.7148 0.36263 -0.08317 0.97022 0.09956 0.036637 0.66113 0.2904 0.51544 0.7879 -0.71215 -1.1172 -1.2324 0.026974 0.027567 -0.53685 -0.12775 -0.33135 -0.17698 -1.7081 -0.5738 0.58575 -0.95186 0.27451 -0.15154 1.1545 -0.11707 0.21915 -0.39239 1.1622 -0.58915 -0.95067 -0.33651 0.32256 -0.33377 -0.83192 -1.1337 0.2554 -0.36172 0.20991 -0.26372 -0.26553 -0.55568 -0.026938 -0.47827 0.84923 0.43357 0.20275 1.5734 -1.1102 -0.67553 1.0836 0.29722 -0.41654 -0.46021 -0.4124 0.37464 -0.35756 -0.022079 -0.20761 -0.65596 -0.59088 -0.7744 -0.51296 -0.042597 0.52924 0.090177 0.25564 -0.27168 -0.85299 -0.048706 -0.46218 -0.83735 0.75636 0.23395 0.32121 0.4543 -0.37469 0.70221 0.070246 -0.0069977 0.16285 -0.29314 -0.3175 -0.27134 -0.10991 -0.80759 0.20819 -0.0019395 -0.24435 0.21588 -0.063903 0.022583 0.67055 -0.24847 -0.2021 0.25361 0.038265 -0.16171 0.22048 0.29984 -0.66553 -0.51222 -0.37535 -0.025843 0.70439 0.54063 0.092527 -0.40117 -0.36131 -0.33864 0.95026 -1.8299 -1.1461 -0.8624 0.78116 0.093705 -0.87016 0.054751 0.73953 0.030305 -1.5504 -0.35478 0.72867 -0.33438 -0.93711 0.72581 -0.53206 0.020714 0.18069 -0.50004 0.1349 -0.18244 -0.092731 -0.20333 -0.033857 0.86424 0.16231 1.0999 0.63296 -0.10519 -0.079066 1.0465 -0.93707 -0.072576 0.0037778 -0.046659 -0.46291 -0.090431 0.10976 0.71566 0.64793 0.037799 -0.54618 0.0097247 0.41161 -0.74237 -0.90648 -0.36875 -0.40047 0.85566 -0.49345 -0.1925
lo -0.012624 0.1571 -0.14587 0.016948 0.10539 0.13406 -0.024124 0.1469 0.015254 -0.31188 -0.042645 -0.0076148 0.015002 0.064542 -0.084324 0.10287 -0.04355 -0.14358 -0.17849 0.084292 -0.067517 0.0024429 0.016166 -0.32639 0.18969 -0.012248 0.042636 -0.19624 0.035265 -0.034627 -0.012924 0.15323 -0.096765 -0.15953 0.18888 0.10931 -0.24697 -0.11195 -0.20628 0.19555 -0.047717 -0.035973 -0.13275 -0.10328 0.050273 -0.11449 0.047118 0.0093802 -0.0067746 0.095331 -0.27166 0.078211 -0.21961 0.026872 0.0075528 -0.23702 -0.21258 0.0776 0.1138 0.052766 -0.28451 0.050226 -0.00015815 -0.19959 0.29059 -0.23558 -0.18841 0.043003 -0.1353 -0.058981 0.04581 -0.16953 0.20171 0.27908 -0.10776 0.073092 0.040724 -0.29942 0.34358 0.10077 -0.1667 0.045512 0.12884 -0.016888 -0.074487 -0.20489 -0.017628 -0.0030153 0.034926 -0.042577 0.059034 0.24269 0.38 0.051315 0.19241 -0.17362 -0.37915 0.087955 0.062286 0.048325 -0.059093 0.11081 -0.016482 0.098163 -0.23073 -0.015417 0.070664 -0.092072 -0.11502 0.012679 0.010277 -0.082472 -0.025841 -0.069461 -0.22585 0.099918 -0.065616 0.059822 -0.219 -0.0021186 0.029713 -0.031114 -0.066917 0.02526 -0.28734 -0.078222 0.046783 -0.11636 -0.090233 -0.052438 -0.12684 0.05163 0.0308 0.23473 -0.11848 0.052031 0.092122 -0.13373 -0.062931 -0.00483 -0.28646 -0.17256 0.0039585 0.15294 0.14127 0.030006 0.085419 -0.16001 0.42139 0.10766 -0.10192 0.11564 0.1519 -0.10183 -0.10771 -0.069245 -0.028835 0.0088223 0.38228 0.029331 -0.026405 0.063806 0.040897 0.030977 0.1861 0.17092 -0.049731 -0.14237 0.013291 -0.044254 0.22217 0.12491 -0.049539 -0.14301 -0.23951 -0.52917 0.15362 0.012669 -0.068266 0.18406 0.053048 -0.064616 0.040383 -0.13006 0.089788 0.19126 0.1234 0.022962 0.058476 0.23344 0.022116 -0.099559 -0.025108 0.074597 -0.26351 0.18185 0.11257 -0.11273 -0.18417 0.23759 0.12147 0.21811 0.32273 0.12231 -0.084249 -0.076667 -0.11397 -0.042851 -0.080804 0.14789 -0.33755 0.20734 -0.24211 0.13761 -0.11389 -0.24705 0.042036 -0.10569 0.027618 0.011111 -0.19235 -0.054158 -0.050722 -0.24081 -0.0035735 0.24179 -0.19109 -0.03132 -0.1624 -0.070173 0.21292 -0.11203 -0.083118 0.0094366 0.066253 0.048711 0.12886 0.16624 -0.24931 -0.05805 0.17886 -0.077075 0.27103 0.013529 0.34754 0.033625 0.080247 0.087122 -0.090444 -0.011416 -0.22191 0.15309 -0.031688 0.13999 -0.20229 -0.083505 0.085678 0.1014 0.035302 0.10018 0.095393 0.17968 0.12363 0.070837 0.0060299 0.044136 -0.12558 0.24407 0.004587 -0.26075 -0.13582 0.1524 -0.020744 0.23353 0.052584 -0.017264 0.092665 -0.015005 -0.075061 0.071779 -0.056057 -0.11312 -0.12433 -0.22021 -0.049299 -0.072663 0.16082 0.22046 -0.16358 -0.072497 -0.08565 -0.16337 -0.056071 0.21367 -0.12797 -0.15943 -0.0194 -0.011014 0.16284 0.03814